tree
version=v4
num_class=1
num_tree_per_iteration=1
label_index=0
max_feature_idx=1026
objective=binary sigmoid:1
feature_names=Column_0 Column_1 Column_2 Column_3 Column_4 Column_5 Column_6 Column_7 Column_8 Column_9 Column_10 Column_11 Column_12 Column_13 Column_14 Column_15 Column_16 Column_17 Column_18 Column_19 Column_20 Column_21 Column_22 Column_23 Column_24 Column_25 Column_26 Column_27 Column_28 Column_29 Column_30 Column_31 Column_32 Column_33 Column_34 Column_35 Column_36 Column_37 Column_38 Column_39 Column_40 Column_41 Column_42 Column_43 Column_44 Column_45 Column_46 Column_47 Column_48 Column_49 Column_50 Column_51 Column_52 Column_53 Column_54 Column_55 Column_56 Column_57 Column_58 Column_59 Column_60 Column_61 Column_62 Column_63 Column_64 Column_65 Column_66 Column_67 Column_68 Column_69 Column_70 Column_71 Column_72 Column_73 Column_74 Column_75 Column_76 Column_77 Column_78 Column_79 Column_80 Column_81 Column_82 Column_83 Column_84 Column_85 Column_86 Column_87 Column_88 Column_89 Column_90 Column_91 Column_92 Column_93 Column_94 Column_95 Column_96 Column_97 Column_98 Column_99 Column_100 Column_101 Column_102 Column_103 Column_104 Column_105 Column_106 Column_107 Column_108 Column_109 Column_110 Column_111 Column_112 Column_113 Column_114 Column_115 Column_116 Column_117 Column_118 Column_119 Column_120 Column_121 Column_122 Column_123 Column_124 Column_125 Column_126 Column_127 Column_128 Column_129 Column_130 Column_131 Column_132 Column_133 Column_134 Column_135 Column_136 Column_137 Column_138 Column_139 Column_140 Column_141 Column_142 Column_143 Column_144 Column_145 Column_146 Column_147 Column_148 Column_149 Column_150 Column_151 Column_152 Column_153 Column_154 Column_155 Column_156 Column_157 Column_158 Column_159 Column_160 Column_161 Column_162 Column_163 Column_164 Column_165 Column_166 Column_167 Column_168 Column_169 Column_170 Column_171 Column_172 Column_173 Column_174 Column_175 Column_176 Column_177 Column_178 Column_179 Column_180 Column_181 Column_182 Column_183 Column_184 Column_185 Column_186 Column_187 Column_188 Column_189 Column_190 Column_191 Column_192 Column_193 Column_194 Column_195 Column_196 Column_197 Column_198 Column_199 Column_200 Column_201 Column_202 Column_203 Column_204 Column_205 Column_206 Column_207 Column_208 Column_209 Column_210 Column_211 Column_212 Column_213 Column_214 Column_215 Column_216 Column_217 Column_218 Column_219 Column_220 Column_221 Column_222 Column_223 Column_224 Column_225 Column_226 Column_227 Column_228 Column_229 Column_230 Column_231 Column_232 Column_233 Column_234 Column_235 Column_236 Column_237 Column_238 Column_239 Column_240 Column_241 Column_242 Column_243 Column_244 Column_245 Column_246 Column_247 Column_248 Column_249 Column_250 Column_251 Column_252 Column_253 Column_254 Column_255 Column_256 Column_257 Column_258 Column_259 Column_260 Column_261 Column_262 Column_263 Column_264 Column_265 Column_266 Column_267 Column_268 Column_269 Column_270 Column_271 Column_272 Column_273 Column_274 Column_275 Column_276 Column_277 Column_278 Column_279 Column_280 Column_281 Column_282 Column_283 Column_284 Column_285 Column_286 Column_287 Column_288 Column_289 Column_290 Column_291 Column_292 Column_293 Column_294 Column_295 Column_296 Column_297 Column_298 Column_299 Column_300 Column_301 Column_302 Column_303 Column_304 Column_305 Column_306 Column_307 Column_308 Column_309 Column_310 Column_311 Column_312 Column_313 Column_314 Column_315 Column_316 Column_317 Column_318 Column_319 Column_320 Column_321 Column_322 Column_323 Column_324 Column_325 Column_326 Column_327 Column_328 Column_329 Column_330 Column_331 Column_332 Column_333 Column_334 Column_335 Column_336 Column_337 Column_338 Column_339 Column_340 Column_341 Column_342 Column_343 Column_344 Column_345 Column_346 Column_347 Column_348 Column_349 Column_350 Column_351 Column_352 Column_353 Column_354 Column_355 Column_356 Column_357 Column_358 Column_359 Column_360 Column_361 Column_362 Column_363 Column_364 Column_365 Column_366 Column_367 Column_368 Column_369 Column_370 Column_371 Column_372 Column_373 Column_374 Column_375 Column_376 Column_377 Column_378 Column_379 Column_380 Column_381 Column_382 Column_383 Column_384 Column_385 Column_386 Column_387 Column_388 Column_389 Column_390 Column_391 Column_392 Column_393 Column_394 Column_395 Column_396 Column_397 Column_398 Column_399 Column_400 Column_401 Column_402 Column_403 Column_404 Column_405 Column_406 Column_407 Column_408 Column_409 Column_410 Column_411 Column_412 Column_413 Column_414 Column_415 Column_416 Column_417 Column_418 Column_419 Column_420 Column_421 Column_422 Column_423 Column_424 Column_425 Column_426 Column_427 Column_428 Column_429 Column_430 Column_431 Column_432 Column_433 Column_434 Column_435 Column_436 Column_437 Column_438 Column_439 Column_440 Column_441 Column_442 Column_443 Column_444 Column_445 Column_446 Column_447 Column_448 Column_449 Column_450 Column_451 Column_452 Column_453 Column_454 Column_455 Column_456 Column_457 Column_458 Column_459 Column_460 Column_461 Column_462 Column_463 Column_464 Column_465 Column_466 Column_467 Column_468 Column_469 Column_470 Column_471 Column_472 Column_473 Column_474 Column_475 Column_476 Column_477 Column_478 Column_479 Column_480 Column_481 Column_482 Column_483 Column_484 Column_485 Column_486 Column_487 Column_488 Column_489 Column_490 Column_491 Column_492 Column_493 Column_494 Column_495 Column_496 Column_497 Column_498 Column_499 Column_500 Column_501 Column_502 Column_503 Column_504 Column_505 Column_506 Column_507 Column_508 Column_509 Column_510 Column_511 Column_512 Column_513 Column_514 Column_515 Column_516 Column_517 Column_518 Column_519 Column_520 Column_521 Column_522 Column_523 Column_524 Column_525 Column_526 Column_527 Column_528 Column_529 Column_530 Column_531 Column_532 Column_533 Column_534 Column_535 Column_536 Column_537 Column_538 Column_539 Column_540 Column_541 Column_542 Column_543 Column_544 Column_545 Column_546 Column_547 Column_548 Column_549 Column_550 Column_551 Column_552 Column_553 Column_554 Column_555 Column_556 Column_557 Column_558 Column_559 Column_560 Column_561 Column_562 Column_563 Column_564 Column_565 Column_566 Column_567 Column_568 Column_569 Column_570 Column_571 Column_572 Column_573 Column_574 Column_575 Column_576 Column_577 Column_578 Column_579 Column_580 Column_581 Column_582 Column_583 Column_584 Column_585 Column_586 Column_587 Column_588 Column_589 Column_590 Column_591 Column_592 Column_593 Column_594 Column_595 Column_596 Column_597 Column_598 Column_599 Column_600 Column_601 Column_602 Column_603 Column_604 Column_605 Column_606 Column_607 Column_608 Column_609 Column_610 Column_611 Column_612 Column_613 Column_614 Column_615 Column_616 Column_617 Column_618 Column_619 Column_620 Column_621 Column_622 Column_623 Column_624 Column_625 Column_626 Column_627 Column_628 Column_629 Column_630 Column_631 Column_632 Column_633 Column_634 Column_635 Column_636 Column_637 Column_638 Column_639 Column_640 Column_641 Column_642 Column_643 Column_644 Column_645 Column_646 Column_647 Column_648 Column_649 Column_650 Column_651 Column_652 Column_653 Column_654 Column_655 Column_656 Column_657 Column_658 Column_659 Column_660 Column_661 Column_662 Column_663 Column_664 Column_665 Column_666 Column_667 Column_668 Column_669 Column_670 Column_671 Column_672 Column_673 Column_674 Column_675 Column_676 Column_677 Column_678 Column_679 Column_680 Column_681 Column_682 Column_683 Column_684 Column_685 Column_686 Column_687 Column_688 Column_689 Column_690 Column_691 Column_692 Column_693 Column_694 Column_695 Column_696 Column_697 Column_698 Column_699 Column_700 Column_701 Column_702 Column_703 Column_704 Column_705 Column_706 Column_707 Column_708 Column_709 Column_710 Column_711 Column_712 Column_713 Column_714 Column_715 Column_716 Column_717 Column_718 Column_719 Column_720 Column_721 Column_722 Column_723 Column_724 Column_725 Column_726 Column_727 Column_728 Column_729 Column_730 Column_731 Column_732 Column_733 Column_734 Column_735 Column_736 Column_737 Column_738 Column_739 Column_740 Column_741 Column_742 Column_743 Column_744 Column_745 Column_746 Column_747 Column_748 Column_749 Column_750 Column_751 Column_752 Column_753 Column_754 Column_755 Column_756 Column_757 Column_758 Column_759 Column_760 Column_761 Column_762 Column_763 Column_764 Column_765 Column_766 Column_767 Column_768 Column_769 Column_770 Column_771 Column_772 Column_773 Column_774 Column_775 Column_776 Column_777 Column_778 Column_779 Column_780 Column_781 Column_782 Column_783 Column_784 Column_785 Column_786 Column_787 Column_788 Column_789 Column_790 Column_791 Column_792 Column_793 Column_794 Column_795 Column_796 Column_797 Column_798 Column_799 Column_800 Column_801 Column_802 Column_803 Column_804 Column_805 Column_806 Column_807 Column_808 Column_809 Column_810 Column_811 Column_812 Column_813 Column_814 Column_815 Column_816 Column_817 Column_818 Column_819 Column_820 Column_821 Column_822 Column_823 Column_824 Column_825 Column_826 Column_827 Column_828 Column_829 Column_830 Column_831 Column_832 Column_833 Column_834 Column_835 Column_836 Column_837 Column_838 Column_839 Column_840 Column_841 Column_842 Column_843 Column_844 Column_845 Column_846 Column_847 Column_848 Column_849 Column_850 Column_851 Column_852 Column_853 Column_854 Column_855 Column_856 Column_857 Column_858 Column_859 Column_860 Column_861 Column_862 Column_863 Column_864 Column_865 Column_866 Column_867 Column_868 Column_869 Column_870 Column_871 Column_872 Column_873 Column_874 Column_875 Column_876 Column_877 Column_878 Column_879 Column_880 Column_881 Column_882 Column_883 Column_884 Column_885 Column_886 Column_887 Column_888 Column_889 Column_890 Column_891 Column_892 Column_893 Column_894 Column_895 Column_896 Column_897 Column_898 Column_899 Column_900 Column_901 Column_902 Column_903 Column_904 Column_905 Column_906 Column_907 Column_908 Column_909 Column_910 Column_911 Column_912 Column_913 Column_914 Column_915 Column_916 Column_917 Column_918 Column_919 Column_920 Column_921 Column_922 Column_923 Column_924 Column_925 Column_926 Column_927 Column_928 Column_929 Column_930 Column_931 Column_932 Column_933 Column_934 Column_935 Column_936 Column_937 Column_938 Column_939 Column_940 Column_941 Column_942 Column_943 Column_944 Column_945 Column_946 Column_947 Column_948 Column_949 Column_950 Column_951 Column_952 Column_953 Column_954 Column_955 Column_956 Column_957 Column_958 Column_959 Column_960 Column_961 Column_962 Column_963 Column_964 Column_965 Column_966 Column_967 Column_968 Column_969 Column_970 Column_971 Column_972 Column_973 Column_974 Column_975 Column_976 Column_977 Column_978 Column_979 Column_980 Column_981 Column_982 Column_983 Column_984 Column_985 Column_986 Column_987 Column_988 Column_989 Column_990 Column_991 Column_992 Column_993 Column_994 Column_995 Column_996 Column_997 Column_998 Column_999 Column_1000 Column_1001 Column_1002 Column_1003 Column_1004 Column_1005 Column_1006 Column_1007 Column_1008 Column_1009 Column_1010 Column_1011 Column_1012 Column_1013 Column_1014 Column_1015 Column_1016 Column_1017 Column_1018 Column_1019 Column_1020 Column_1021 Column_1022 Column_1023 Column_1024 Column_1025 Column_1026
feature_infos=[0:1] [0:1] [0:1] [0:1] [0:1] [0:1] [0:1] [0:1] [0:1] [0:1] [0:1] [0:1] [0:1] [0:1] [0:1] [0:1] [0:1] [0:1] [0:1] [0:1] [0:1] [0:1] [0:1] [0:1] [0:1] [0:1] [0:1] [0:1] [0:1] [0:1] [0:1] [0:1] [0:1] [0:1] [0:1] [0:1] [0:1] [0:1] [0:1] [0:1] [0:1] [0:1] [0:1] [0:1] [0:1] [0:1] [0:1] [0:1] [0:1] [0:1] [0:1] [0:1] [0:1] [0:1] [0:1] [0:1] [0:1] [0:1] [0:1] [0:1] [0:1] [0:1] [0:1] [0:1] [0:1] [0:1] [0:1] [0:1] [0:1] [0:1] [0:1] [0:1] [0:1] [0:1] [0:1] [0:1] [0:1] [0:1] [0:1] [0:1] [0:1] [0:1] [0:1] [0:1] [0:1] [0:1] [0:1] [0:1] [0:1] [0:1] [0:1] [0:1] [0:1] [0:1] [0:1] [0:1] [0:1] [0:1] [0:1] [0:1] [0:1] [0:1] [0:1] [0:1] [0:1] [0:1] [0:1] [0:1] [0:1] [0:1] [0:1] [0:1] [0:1] none [0:1] [0:1] [0:1] [0:1] [0:1] [0:1] [0:1] [0:1] [0:1] [0:1] [0:1] [0:1] [0:1] [0:1] none [0:1] [0:1] [0:1] [0:1] [0:1] [0:1] [0:1] [0:1] [0:1] [0:1] [0:1] [0:1] [0:1] [0:1] [0:1] [0:1] [0:1] [0:1] [0:1] [0:1] [0:1] [0:1] [0:1] [0:1] [0:1] none [0:1] [0:1] [0:1] none [0:1] none [0:1] [0:1] [0:1] [0:1] [0:1] [0:1] [0:1] [0:1] [0:1] [0:1] [0:1] [0:1] [0:1] none [0:1] [0:1] [0:1] [0:1] [0:1] [0:1] [0:1] [0:1] [0:1] [0:1] [0:1] [0:1] [0:1] [0:1] [0:1] [0:1] [0:1] [0:1] [0:1] [0:1] [0:1] [0:1] [0:1] [0:1] [0:1] [0:1] [0:1] [0:1] [0:1] [0:1] [0:1] [0:1] [0:1] [0:1] [0:1] [0:1] [0:1] [0:1] [0:1] [0:1] [0:1] [0:1] [0:1] [0:1] [0:1] [0:1] [0:1] [0:1] [0:1] [0:1] [0:1] [0:1] [0:1] [0:1] [0:1] [0:1] [0:1] [0:1] [0:1] [0:1] [0:1] [0:1] [0:1] [0:1] [0:1] [0:1] [0:1] [0:1] [0:1] [0:1] [0:1] [0:1] [0:1] [0:1] [0:1] [0:1] [0:1] [0:1] [0:1] [0:1] [0:1] [0:1] [0:1] [0:1] [0:1] [0:1] [0:1] [0:1] [0:1] [0:1] [0:1] [0:1] [0:1] [0:1] [0:1] [0:1] [0:1] [0:1] [0:1] [0:1] [0:1] [0:1] [0:1] [0:1] [0:1] [0:1] [0:1] [0:1] [0:1] [0:1] [0:1] [0:1] [0:1] [0:1] [0:1] [0:1] [0:1] [0:1] [0:1] [0:1] [0:1] [0:1] [0:1] [0:1] [0:1] [0:1] [0:1] [0:1] [0:1] [0:1] [0:1] [0:1] [0:1] [0:1] [0:1] [0:1] [0:1] [0:1] [0:1] [0:1] [0:1] [0:1] [0:1] [0:1] [0:1] [0:1] [0:1] [0:1] [0:1] [0:1] [0:1] [0:1] [0:1] [0:1] [0:1] [0:1] [0:1] [0:1] [0:1] [0:1] [0:1] [0:1] [0:1] [0:1] [0:1] [0:1] [0:1] [0:1] [0:1] [0:1] [0:1] [0:1] [0:1] [0:1] [0:1] [0:1] [0:1] [0:1] [0:1] [0:1] [0:1] none [0:1] [0:1] [0:1] [0:1] [0:1] [0:1] [0:1] [0:1] [0:1] [0:1] [0:1] [0:1] [0:1] [0:1] [0:1] [0:1] [0:1] [0:1] [0:1] [0:1] [0:1] none [0:1] [0:1] [0:1] [0:1] [0:1] [0:1] [0:1] [0:1] [0:1] [0:1] [0:1] [0:1] [0:1] [0:1] [0:1] [0:1] [0:1] [0:1] [0:1] [0:1] [0:1] [0:1] [0:1] [0:1] [0:1] [0:1] [0:1] [0:1] [0:1] [0:1] [0:1] [0:1] [0:1] [0:1] [0:1] [0:1] [0:1] [0:1] [0:1] [0:1] [0:1] none [0:1] [0:1] [0:1] [0:1] [0:1] [0:1] [0:1] [0:1] [0:1] [0:1] [0:1] [0:1] [0:1] [0:1] [0:1] [0:1] [0:1] [0:1] [0:1] [0:1] [0:1] [0:1] [0:1] [0:1] [0:1] [0:1] [0:1] [0:1] [0:1] [0:1] [0:1] [0:1] [0:1] [0:1] [0:1] [0:1] [0:1] [0:1] [0:1] [0:1] [0:1] [0:1] [0:1] [0:1] [0:1] [0:1] [0:1] [0:1] [0:1] [0:1] [0:1] [0:1] [0:1] [0:1] [0:1] [0:1] [0:1] [0:1] [0:1] [0:1] [0:1] [0:1] [0:1] [0:1] [0:1] [0:1] [0:1] [0:1] [0:1] [0:1] [0:1] [0:1] [0:1] [0:1] [0:1] [0:1] [0:1] [0:1] [0:1] [0:1] [0:1] [0:1] [0:1] [0:1] [0:1] [0:1] [0:1] [0:1] [0:1] [0:1] [0:1] [0:1] [0:1] [0:1] [0:1] [0:1] [0:1] [0:1] [0:1] [0:1] [0:1] [0:1] [0:1] [0:1] [0:1] [0:1] [0:1] [0:1] [0:1] [0:1] [0:1] [0:1] [0:1] [0:1] [0:1] [0:1] [0:1] [0:1] [0:1] [0:1] [0:1] [0:1] [0:1] [0:1] [0:1] [0:1] [0:1] [0:1] [0:1] [0:1] [0:1] [0:1] [0:1] [0:1] [0:1] [0:1] [0:1] none [0:1] [0:1] [0:1] [0:1] [0:1] [0:1] [0:1] [0:1] [0:1] [0:1] [0:1] [0:1] [0:1] [0:1] [0:1] [0:1] [0:1] [0:1] [0:1] [0:1] [0:1] [0:1] [0:1] [0:1] [0:1] [0:1] [0:1] [0:1] [0:1] [0:1] [0:1] [0:1] [0:1] [0:1] [0:1] [0:1] [0:1] [0:1] none [0:1] [0:1] [0:1] [0:1] [0:1] [0:1] [0:1] [0:1] [0:1] [0:1] [0:1] [0:1] [0:1] [0:1] [0:1] [0:1] [0:1] [0:1] [0:1] [0:1] [0:1] [0:1] [0:1] [0:1] [0:1] [0:1] [0:1] [0:1] [0:1] [0:1] [0:1] [0:1] [0:1] [0:1] [0:1] [0:1] [0:1] [0:1] [0:1] [0:1] [0:1] [0:1] [0:1] [0:1] [0:1] [0:1] [0:1] [0:1] [0:1] [0:1] [0:1] [0:1] none [0:1] [0:1] [0:1] [0:1] [0:1] [0:1] [0:1] [0:1] [0:1] [0:1] [0:1] [0:1] [0:1] [0:1] [0:1] [0:1] [0:1] [0:1] [0:1] [0:1] [0:1] [0:1] [0:1] [0:1] [0:1] [0:1] [0:1] [0:1] [0:1] [0:1] [0:1] [0:1] [0:1] [0:1] [0:1] [0:1] [0:1] [0:1] [0:1] [0:1] [0:1] [0:1] [0:1] [0:1] [0:1] [0:1] [0:1] [0:1] [0:1] [0:1] [0:1] [0:1] [0:1] [0:1] [0:1] [0:1] [0:1] [0:1] [0:1] [0:1] [0:1] [0:1] [0:1] [0:1] [0:1] [0:1] [0:1] [0:1] [0:1] [0:1] [0:1] [0:1] [0:1] [0:1] [0:1] [0:1] [0:1] [0:1] [0:1] [0:1] [0:1] [0:1] [0:1] [0:1] [0:1] [0:1] [0:1] [0:1] [0:1] [0:1] [0:1] [0:1] none [0:1] [0:1] [0:1] [0:1] [0:1] [0:1] [0:1] [0:1] [0:1] [0:1] [0:1] [0:1] [0:1] [0:1] [0:1] [0:1] [0:1] [0:1] [0:1] [0:1] [0:1] [0:1] [0:1] [0:1] [0:1] [0:1] [0:1] [0:1] [0:1] [0:1] [0:1] [0:1] [0:1] [0:1] none [0:1] [0:1] [0:1] [0:1] [0:1] [0:1] [0:1] [0:1] [0:1] [0:1] [0:1] [0:1] [0:1] [0:1] [0:1] [0:1] [0:1] [0:1] [0:1] [0:1] [0:1] [0:1] [0:1] [0:1] [0:1] [0:1] [0:1] [0:1] none [0:1] [0:1] [0:1] [0:1] [0:1] [0:1] [0:1] [0:1] [0:1] [0:1] [0:1] [0:1] [0:1] [0:1] [0:1] [0:1] [0:1] [0:1] [0:1] [0:1] [0:1] [0:1] [0:1] none [0:1] [0:1] [0:1] [0:1] [0:1] [0:1] [0:1] [0:1] [0:1] [0:1] [0:1] [0:1] [0:1] [0:1] [0:1] [0:1] [0:1] [0:1] [0:1] [0:1] [0:1] [0:1] [0:1] [0:1] [0:1] [0:1] [0:1] [0:1] [0:1] [0:1] [0:1] [0:1] [0:1] [0:1] [0:1] [0:1] [0:1] [0:1] [0:1] [0:1] [0:1] [0:1] [0:1] [0:1] [0:1] [0:1] [0:1] [0:1] [0:1] [0:1] [0:1] [0:1] [0:1] [0:1] [0:1] [0:1] [0:1] [0:1] [0:1] [0:1] [0:1] none [0:1] [0:1] [0:1] [0:1] [0:1] [0:1] [0:1] [0:1] [0:1] [0:1] [0:1] [0:1] [0:1] [0:1] [0:1] [0:1] [0:1] [0:1] [0:1] [0:1] [0:1] [0:1] [0:1] [0:1] [0:1] [0:1] [0:1] [0:1] [0:1] [0:1] [0:1] [0:1] [0:1] [0:1] none [0:1] [0:1] [0:1] [0:1] [0:1] [0:1] [0:1] [0:1] [0:1] [0:1] [0:1] [0:1] [0:1] [0:1] [0:1] [0:1] [0:1] [0:1] [0:1] [0:1] [0:1] [0:1] [0:1] [0:1] [0:1] [0:1] [0:1] [0:1] [0:1] [0:1] [0:1] [0:1] [0:1] [0:1] [0:1] [0:1] [0:1] [0:1] [0:1] [0:1] [0:1] [0:1] [0:1] [0:1] [0:1] [0:1] [0:1] [0:1] [0:1] [0:1] [0:1] [0:1] [0:1] [0:1] none [0:1] [0:1] [0:1] [0:1] [0:1] [0:1] [0:1] [0:1] [0:1] [0:1] [0:1] [0:1] [0:1] [0:1] [0:1] [0:1] [0:1] [0:1] [0:1] [0:1] [0:1] [0:1] [0:1] [0:1] [0:1] [0:1] [0:1] [0:1] [0:1] [0:1] [0:1] [0:1] [0:1] [0:1] [0:1] [0:1] [0:1] [0:1] [0:1] [0:1] [0:1] [0:1] [0:1]
tree_sizes=3568 3571 3572 3582 3574 3572 3581 3595 3574 3576 3588 3585 3596 3581 3598 3593 3589 3602 3584 3601 3613 3605 3611 3587 3607 3608 3596 3613 3589 3612 3592 3596 3609 3608 3605 3596 3607 3607 3601 3618 3597 3624 3615 3612 3637 3629 3597 3609 3629 3624 3624 3605 3610 3612 3608 3619 3622 3619 3606 3611 3625 3609 3606 3597 3624 3581 3609 3606 3626 3585 3619 3623 3627 3581 3575 3621 3612 3602 3618 3599 3602 3571 3606 3615 3589 3598 3598 3609 3592 3583 3585 3604 3614 3599 3598 3608 3569 3582 3584 3600

Tree=0
num_leaves=31
num_cat=0
split_feature=647 142 1026 755 843 1024 90 19 823 579 1024 235 210 925 680 215 312 579 973 913 758 732 733 53 952 937 855 894 167 229
split_gain=5784.35 1785.46 1161.02 1105.54 948.876 1012.48 717.615 637.986 655.07 472.934 454.129 442.333 407.558 357.709 440.877 353.566 292.591 276.667 267.911 348.186 226 222.518 200.885 199.568 195.661 187.922 185.02 180.825 171.286 157.482
threshold=1.0000000180025095e-35 1.0000000180025095e-35 1.0000000180025095e-35 1.0000000180025095e-35 1.0000000180025095e-35 1.0000000180025095e-35 1.0000000180025095e-35 1.0000000180025095e-35 1.0000000180025095e-35 1.0000000180025095e-35 1.0000000180025095e-35 1.0000000180025095e-35 1.0000000180025095e-35 1.0000000180025095e-35 1.0000000180025095e-35 1.0000000180025095e-35 1.0000000180025095e-35 1.0000000180025095e-35 1.0000000180025095e-35 1.0000000180025095e-35 1.0000000180025095e-35 1.0000000180025095e-35 1.0000000180025095e-35 1.0000000180025095e-35 1.0000000180025095e-35 1.0000000180025095e-35 1.0000000180025095e-35 1.0000000180025095e-35 1.0000000180025095e-35 1.0000000180025095e-35
decision_type=2 2 2 2 2 2 2 2 2 2 2 2 2 2 2 2 2 2 2 2 2 2 2 2 2 2 2 2 2 2
left_child=1 3 22 4 7 9 12 8 15 -6 17 -4 -5 14 20 16 26 -3 19 23 25 24 -2 -9 27 -7 -1 28 -18 -17
right_child=2 10 11 6 5 13 -8 18 -10 -11 -12 -13 -14 -15 -16 29 21 -19 -20 -21 -22 -23 -24 -25 -26 -27 -28 -29 -30 -31
leaf_value=-0.14279217241423645 -0.10290995195373556 -0.11925267130143352 -0.0064143372894005183 -0.096537136664990308 -0.1044032398775192 -0.10065896782408479 0.11549889496822979 -0.075235196830134854 0.067923527682574869 0.05641611109797711 -0.12708818626194537 0.19125623771604611 0.13410964616716634 0.18330116709263766 0.15222898809731311 -0.14968421579621513 -0.10448692423673142 0.14443950113254703 0.1444898019528226 0.13706844889742278 0.12695766157026608 0.11689768666770947 0.11353869913446424 0.10778336708354178 0.14680037438466653 0.011172988010737288 -0.041396580157649625 0.096766210841893741 0.045213344264546929 0.13935444905082242
leaf_weight=2298.7169791013002 191.49724915623665 42.249393090605736 121.74825109541416 371.74465991556644 1000.7356245070696 226.99673920869827 611.49121597409248 554.74203117191792 222.74680025875568 223.74678589403629 76.498901098966599 1613.2268261164427 96.498613804578781 182.24738202989101 231.99666738510132 24.499648064374924 1837.9735976457596 683.24018530547619 104.74849529564381 110.49841269850731 111.74839474260807 53.749227896332741 55.249206349253654 66.749041154980659 34.499504417181015 444.49361488223076 195.24719528853893 48.749299719929695 79.748854413628578 81.748825684189796
leaf_count=9195 766 169 487 1487 4003 908 2446 2219 891 895 306 6453 386 729 928 98 7352 2733 419 442 447 215 221 267 138 1778 781 195 319 327
internal_value=-0.00758337 -0.0384627 0.14852 -0.0509163 -0.0635333 -0.0110778 0.0441597 -0.0857657 -0.0996048 -0.0750171 0.104648 0.177385 -0.049004 0.0543032 0.0311465 -0.107621 -0.111833 0.129083 -0.0050921 -0.0264974 -0.00471838 -0.0838915 -0.0544448 -0.0555787 -0.089285 -0.0266317 -0.134854 -0.0934268 -0.0982616 0.0727055
internal_weight=0 10018.1 1981.72 9216.12 8136.38 2421.97 1079.73 5714.42 4877.68 1224.48 801.988 1734.98 468.243 1197.48 1015.24 4654.93 4548.68 725.49 836.738 731.989 783.239 2054.72 246.746 621.491 2000.97 671.49 2493.96 1966.47 1917.72 106.248
internal_count=48000 40073 7927 36865 32546 9688 4319 22858 19511 4898 3208 6940 1873 4790 4061 18620 18195 2902 3347 2928 3133 8219 987 2486 8004 2686 9976 7866 7671 425
is_linear=0
shrinkage=1


Tree=1
num_leaves=31
num_cat=0
split_feature=647 142 1026 973 492 843 1024 823 578 698 579 1024 235 312 1025 609 925 680 1024 579 718 913 579 732 91 94 952 167 835 562
split_gain=4721.26 1452.78 951.519 919.527 911.771 828.791 921.042 568.19 540.932 509.926 415.4 369.841 364.925 358.532 350.366 317.673 307.443 355.429 265.725 225.377 224.832 216.259 189.637 188.784 188.405 180.881 178.098 181.947 185.084 170.554
threshold=1.0000000180025095e-35 1.0000000180025095e-35 1.0000000180025095e-35 1.0000000180025095e-35 1.0000000180025095e-35 1.0000000180025095e-35 1.0000000180025095e-35 1.0000000180025095e-35 1.0000000180025095e-35 1.0000000180025095e-35 1.0000000180025095e-35 1.0000000180025095e-35 1.0000000180025095e-35 1.0000000180025095e-35 1.0000000180025095e-35 1.0000000180025095e-35 1.0000000180025095e-35 1.0000000180025095e-35 1.0000000180025095e-35 1.0000000180025095e-35 1.0000000180025095e-35 1.0000000180025095e-35 1.0000000180025095e-35 1.0000000180025095e-35 1.0000000180025095e-35 1.0000000180025095e-35 1.0000000180025095e-35 1.0000000180025095e-35 1.0000000180025095e-35 1.0000000180025095e-35
decision_type=2 2 2 2 2 2 2 2 2 2 2 2 2 2 2 2 2 2 2 2 2 2 2 2 2 2 2 2 2 2
left_child=1 3 29 4 5 7 10 8 13 -5 -7 19 -4 14 -1 22 17 20 -6 -3 25 24 -16 26 -10 -8 27 28 -15 -2
right_child=2 11 12 9 18 6 16 -9 21 -11 -12 -13 -14 23 15 -17 -18 -19 -20 -21 -22 -23 -24 -25 -26 -27 -28 -29 -30 -31
leaf_value=-0.14193189726702096 -0.1306742116014448 -0.10087266632388475 0.0010521238641434966 -0.12990143286832592 -0.094342898478599169 -0.092924802774874526 0.0054277121563243245 0.068818715396105054 -0.045590951951537229 0.15356664774211237 0.05636677248868599 -0.10800463733488663 0.18065288204606592 -0.085476278001251751 -0.10766138948318747 0.097186386459391996 0.17471922358564734 0.15203253973985784 0.15465835266965425 0.13755843256963976 -0.088016844477129028 0.13866694048768408 0.0092405163681357119 0.11782182429531468 0.13136795813718727 0.13056784890342307 0.14760785288577841 0.083604505197019022 0.00092579708590915372 0.036130685456751049
leaf_weight=1712.4358298927546 115.69313371181488 42.100143745541573 121.74874456226826 77.219439998269081 50.587489977478981 995.78385628759861 482.96835911273956 270.89346027374268 372.09104284644127 356.13797757029533 229.29530404508114 76.191933810710907 1598.5867011398077 1922.2086421102285 778.33884713053703 104.13972854614258 189.46075321733952 211.05338537693024 280.48068979382515 679.69875030219555 192.51130026578903 111.74439863860607 168.87191973626614 57.560268178582191 71.770364508032799 151.81126555800438 38.560125470161438 75.435718506574631 284.63821582496166 130.37306959927082
leaf_count=6879 464 169 487 310 203 3994 1934 1085 1494 1430 918 306 6453 7709 3127 418 764 849 1126 2733 771 449 678 231 288 609 155 302 1142 523
internal_value=0 -0.02789 0.141634 -0.039133 -0.046173 -0.0525724 -0.00363658 -0.072683 -0.0794105 0.103056 -0.0649822 0.101533 0.167942 -0.0895386 -0.114034 -0.0685933 0.0575729 0.0361978 0.116611 0.123652 0.00664681 0.014326 -0.0868197 -0.0610743 -0.0169775 0.0353557 -0.0655112 -0.0691119 -0.0743322 -0.0422961
internal_weight=0 9983.99 1966.4 9186 8752.64 8421.57 2452.88 5968.69 5697.8 433.357 1225.08 797.991 1720.34 5142.19 2763.79 1051.35 1227.81 1038.34 331.068 721.799 827.291 555.606 947.211 2378.4 443.861 634.78 2320.84 2282.28 2206.85 246.066
internal_count=48000 40073 7927 36865 35125 33796 9839 23957 22872 1740 4912 3208 6940 20641 11102 4223 4927 4163 1329 2902 3314 2231 3805 9539 1782 2543 9308 9153 8851 987
is_linear=0
shrinkage=0.1


Tree=2
num_leaves=31
num_cat=0
split_feature=647 142 1026 755 680 925 19 90 827 215 1024 235 1024 153 191 1024 439 973 578 653 719 155 695 255 53 229 122 732 918 391
split_gain=3906.35 1191.36 797.713 757.037 644.951 561.31 515.714 484.816 312.615 333.113 312.231 311.208 304.21 298.845 281.003 362.397 374.031 239.11 260.641 199.293 197.184 187.157 208.263 181.475 180.455 169.033 157.501 160.256 154.08 162.452
threshold=1.0000000180025095e-35 1.0000000180025095e-35 1.0000000180025095e-35 1.0000000180025095e-35 1.0000000180025095e-35 1.0000000180025095e-35 1.0000000180025095e-35 1.0000000180025095e-35 1.0000000180025095e-35 1.0000000180025095e-35 1.0000000180025095e-35 1.0000000180025095e-35 1.0000000180025095e-35 1.0000000180025095e-35 1.0000000180025095e-35 1.0000000180025095e-35 1.0000000180025095e-35 1.0000000180025095e-35 1.0000000180025095e-35 1.0000000180025095e-35 1.0000000180025095e-35 1.0000000180025095e-35 1.0000000180025095e-35 1.0000000180025095e-35 1.0000000180025095e-35 1.0000000180025095e-35 1.0000000180025095e-35 1.0000000180025095e-35 1.0000000180025095e-35 1.0000000180025095e-35
decision_type=2 2 2 2 2 2 2 2 2 2 2 2 2 2 2 2 2 2 2 2 2 2 2 2 2 2 2 2 2 2
left_child=1 3 -2 4 5 6 8 13 9 14 -6 -4 21 -5 26 16 28 18 24 -7 -10 22 -3 -17 -8 -11 27 -1 29 -16
right_child=2 12 11 7 10 19 17 -9 20 25 -12 -13 -14 -15 15 23 -18 -19 -20 -21 -22 -23 -24 -25 -26 -27 -28 -29 -30 -31
leaf_value=-0.10189524390863172 -0.038292811125144793 -0.09002106192723662 0.00094690572533931536 -0.074188148529101286 -0.061526511830859859 -0.12526746808845898 -0.052845212406676584 0.10274674614484941 -0.026927919192253333 -0.083227681539211729 0.12469087907229644 0.16695289538579317 -0.098204338893464416 0.12384064395512102 -0.11128786386446876 -0.036687371020751397 0.12297514750250096 0.13516507628908775 0.1064562353522502 0.14798264281085044 0.14144156650074108 0.16098609624178839 0.10046416144070616 0.051825939247514885 0.1094439067846045 0.14610103711681274 0.01194997227334979 0.049217325712372709 0.083961172836742315 0.044199949171318087
leaf_weight=3331.6449242979288 244.79857520759106 73.76609668135643 121.74912191927433 368.16756188869476 126.030841588974 31.318700507283211 637.98501288890839 603.11900858581066 206.27900694310665 46.745018616318703 315.29902723431587 1558.7264675348997 75.452647000551224 96.097055032849312 1195.6635504364967 627.80971409380436 82.908839479088783 131.01741793751717 158.14459948241711 180.65365540981293 104.94567528367043 379.16569709777832 258.6550145149231 367.06127209961414 76.759276315569878 102.87408992648125 133.66419389843941 71.690229058265686 45.897951766848564 71.195214599370956
leaf_count=13496 987 300 487 1485 509 127 2570 2446 832 189 1285 6453 306 388 4832 2528 333 533 641 745 422 1547 1055 1477 308 415 541 291 185 287
internal_value=0 -0.0253199 0.130358 -0.0355146 -0.0460126 -0.0528335 -0.0574342 0.0436165 -0.0679046 -0.0729107 0.0715127 0.154926 0.0927218 -0.0331986 -0.0766303 -0.0501461 -0.0830189 0.00919492 -0.00971274 0.10761 0.0298467 0.112966 0.0581944 -0.00403006 -0.0354163 0.0744526 -0.0945302 -0.0987121 -0.0960287 -0.10255
internal_weight=0 9900.01 1925.27 9112.97 8045.59 7604.26 7392.29 1067.38 6388.38 6077.15 441.33 1680.48 787.039 464.265 5927.54 2390.54 1395.67 1003.91 872.889 211.972 311.225 711.587 332.421 994.871 714.744 149.619 3537 3403.34 1312.76 1266.86
internal_count=48000 40073 7927 36865 32546 30752 29880 4319 25828 24574 1794 6940 3208 1873 23970 9642 5637 4052 3519 872 1254 2902 1355 4005 2878 604 14328 13787 5304 5119
is_linear=0
shrinkage=0.1


Tree=3
num_leaves=31
num_cat=0
split_feature=647 142 1026 973 492 843 1024 312 698 578 823 579 278 1025 1024 609 925 680 1024 718 579 392 579 534 952 579 732 77 19 468
split_gain=3262.91 982.443 681.52 638.269 644.425 582.975 632.116 394.99 374.68 331.925 327.129 304.229 278.526 273.941 252.091 232.609 224.251 248.406 197.127 181.677 162.902 160.516 151.466 144.161 146.11 144.031 139.297 135.507 132.566 134.696
threshold=1.0000000180025095e-35 1.0000000180025095e-35 1.0000000180025095e-35 1.0000000180025095e-35 1.0000000180025095e-35 1.0000000180025095e-35 1.0000000180025095e-35 1.0000000180025095e-35 1.0000000180025095e-35 1.0000000180025095e-35 1.0000000180025095e-35 1.0000000180025095e-35 1.0000000180025095e-35 1.0000000180025095e-35 1.0000000180025095e-35 1.0000000180025095e-35 1.0000000180025095e-35 1.0000000180025095e-35 1.0000000180025095e-35 1.0000000180025095e-35 1.0000000180025095e-35 1.0000000180025095e-35 1.0000000180025095e-35 1.0000000180025095e-35 1.0000000180025095e-35 1.0000000180025095e-35 1.0000000180025095e-35 1.0000000180025095e-35 1.0000000180025095e-35 1.0000000180025095e-35
decision_type=2 2 2 2 2 2 2 2 2 2 2 2 2 2 2 2 2 2 2 2 2 2 2 2 2 2 2 2 2 2
left_child=1 3 22 4 5 7 11 9 -5 13 23 -7 -4 -1 20 25 17 19 -6 21 -3 -8 -2 24 26 -15 28 -13 29 -9
right_child=2 14 12 8 18 6 16 10 -10 -11 -12 27 -14 15 -16 -17 -18 -19 -20 -21 -22 -23 -24 -25 -26 -27 -28 -29 -30 -31
leaf_value=-0.12123689408117272 -0.094606075762553921 -0.088252225045526642 -0.039988513984395076 -0.11367393182741209 -0.08212899786859218 -0.077640865829150474 -0.049620325655796556 -0.068324639829153613 0.13201528564406526 0.0075799796408423511 0.090501074619780825 -0.018043302535764739 0.15391399694520891 -0.090106124960459416 -0.089682105954895272 0.085991272004494135 0.15194799988440671 0.13000410774170992 0.13409628690213785 -0.078790290788330775 0.11611227381650349 0.063314461357050836 0.068697613437950125 0.068661666292708048 0.14383887340400667 0.011643765808701386 0.10356921908273725 0.13716865139494624 0.0070520315256152339 0.081136118777754479
leaf_weight=1713.6232559978962 154.42298503220081 41.472461730241776 77.809279650449753 75.663137942552567 49.894363462924957 978.95560571551323 173.40683233737946 1980.3611965328455 345.52713669836521 344.00884152948856 198.84470918774605 127.15836153924465 1545.5223922133446 779.06844294071198 74.414185523986816 103.43437738716602 179.84165965020657 202.93222378194332 272.10732883214951 191.68791308999062 655.46338832378387 458.92877954244614 89.839477345347404 111.25578661262989 39.173217624425888 169.3634228259325 57.026004388928413 100.86752758920193 303.54379349946976 62.191108480095863
leaf_count=7061 626 169 312 310 203 3994 697 8061 1430 1401 805 510 6628 3199 306 421 764 849 1126 771 2733 1846 361 453 158 684 232 408 1231 251
internal_value=0 -0.0230489 0.121187 -0.0323131 -0.0382012 -0.0436016 -0.00224033 -0.0606331 0.0878794 -0.0850552 -0.0330423 -0.0534105 0.14462 -0.0965785 0.0852709 -0.0564068 0.0489376 0.0308983 0.100592 0.00649154 0.103951 0.0323441 -0.0345432 -0.0426626 -0.0477338 -0.0719364 -0.0508567 0.0506149 -0.0546103 -0.0637739
internal_weight=0 9790.22 1867.59 9018.87 8597.67 8275.67 2413.78 5861.89 421.19 3109.5 2752.4 1206.98 1623.33 2765.49 771.35 1051.87 1206.8 1026.96 322.002 824.024 696.936 632.336 244.262 2553.55 2442.3 948.432 2403.12 228.026 2346.1 2042.55
internal_count=48000 40073 7927 36865 35125 33796 9839 23957 1740 12766 11191 4912 6940 11365 3208 4304 4927 4163 1329 3314 2902 2543 987 10386 9933 3883 9775 918 9543 8312
is_linear=0
shrinkage=0.1


Tree=4
num_leaves=31
num_cat=0
split_feature=647 142 1026 973 492 843 1024 578 312 698 823 235 579 1025 155 632 680 609 758 813 1024 695 913 91 392 472 733 65 124 167
split_gain=2746.61 813.457 588.159 528.019 532.868 479.74 519.5 340.989 364.025 312.269 266.923 253.375 249.771 233.396 223.209 194.697 208.074 190.899 172.658 170.69 164.809 152.597 141.524 151.74 140.642 133.557 129.075 123.082 142.747 142.564
threshold=1.0000000180025095e-35 1.0000000180025095e-35 1.0000000180025095e-35 1.0000000180025095e-35 1.0000000180025095e-35 1.0000000180025095e-35 1.0000000180025095e-35 1.0000000180025095e-35 1.0000000180025095e-35 1.0000000180025095e-35 1.0000000180025095e-35 1.0000000180025095e-35 1.0000000180025095e-35 1.0000000180025095e-35 1.0000000180025095e-35 1.0000000180025095e-35 1.0000000180025095e-35 1.0000000180025095e-35 1.0000000180025095e-35 1.0000000180025095e-35 1.0000000180025095e-35 1.0000000180025095e-35 1.0000000180025095e-35 1.0000000180025095e-35 1.0000000180025095e-35 1.0000000180025095e-35 1.0000000180025095e-35 1.0000000180025095e-35 1.0000000180025095e-35 1.0000000180025095e-35
decision_type=2 2 2 2 2 2 2 2 2 2 2 2 2 2 2 2 2 2 2 2 2 2 2 2 2 2 2 2 2 2
left_child=1 3 26 4 5 7 12 8 13 -5 27 -4 25 -1 21 16 18 -15 19 24 -6 -3 23 -9 -8 -7 -2 28 29 -10
right_child=2 14 11 9 20 6 15 22 10 -11 -12 -13 -14 17 -16 -17 -18 -19 -20 -21 -22 -23 -24 -25 -26 -27 -28 -29 -30 -31
leaf_value=-0.11177304002927171 -0.070859660588516282 -0.076164898102222017 -0.0025506996526987917 -0.10422379000317197 -0.074640606561601652 -0.07755284880540092 -0.099047278001375874 -0.032441171060563316 -0.060559726228754863 0.12225313799637239 0.079549148549112672 0.14787654147072168 0.045952440233858562 -0.065630997414576453 0.13439815127774504 0.14251933448906234 0.12037225348598404 0.078044773413892862 0.11926362744565647 0.15920648205555477 0.12427390810780797 0.064538162209503022 0.11917050424764355 0.12283193345750894 0.0030895567603427855 0.13214961625010849 0.10360411275120457 0.027165543536591109 0.1544458320640541 0.084080596870945906
leaf_weight=1674.8482031226158 187.41703787446022 106.72843520343304 121.45406813919544 74.339465901255608 49.433948948979378 936.09896148741245 190.66439318656921 374.89136597514153 2008.4082360416651 336.28237842023373 185.63079154491425 1434.3184271603823 226.29006449878216 936.39814507961273 368.35174167156219 173.87322011590004 196.68842445313931 102.61148668825626 115.32688982784748 53.363730072975159 264.63706120848656 277.46544705331326 112.14266286790371 75.635086447000504 460.28672477602959 31.389527231454849 54.807741403579712 214.23077140748501 32.849792569875717 70.537894457578659
leaf_count=7061 766 442 487 310 203 3867 772 1525 8243 1430 759 6453 918 3883 1590 769 849 421 469 215 1126 1176 464 305 1853 127 221 877 135 284
internal_value=0 -0.021054 0.113565 -0.0294983 -0.0348571 -0.0397696 -0.00201632 -0.055319 -0.0632835 0.0812515 -0.035848 0.136133 -0.0486275 -0.088675 0.0787779 0.0447349 0.0280059 -0.0514417 0.0058409 -0.0127313 0.0929653 0.0254511 0.0186479 -0.00637368 -0.0268264 -0.0707492 -0.0313841 -0.0450573 -0.052384 -0.0556521
internal_weight=0 9649.4 1798 8896.86 8486.24 8172.17 2383.98 5788.18 5225.52 410.622 2511.66 1555.77 1193.78 2713.86 752.546 1190.2 1016.33 1039.01 819.642 704.315 314.071 384.194 562.669 450.526 650.951 967.488 242.225 2326.03 2111.8 2078.95
internal_count=48000 40073 7927 36865 35125 33796 9839 23957 21663 1740 10298 6940 4912 11365 3208 4927 4158 4304 3309 2840 1329 1618 2294 1830 2625 3994 987 9539 8662 8527
is_linear=0
shrinkage=0.1


Tree=5
num_leaves=31
num_cat=0
split_feature=647 142 1026 755 843 1024 19 90 823 235 210 439 1024 952 215 925 680 122 312 3 918 249 813 695 526 913 973 445 562 389
split_gain=2327.5 674.53 512.874 451.559 364.206 375.931 294.341 280.085 267.291 228.547 207.771 201.834 197.595 191.317 187.28 162.515 172.397 156.805 156.018 138.878 135.886 134.443 135.809 131.027 126.239 121.282 121.397 118.675 115.731 113.971
threshold=1.0000000180025095e-35 1.0000000180025095e-35 1.0000000180025095e-35 1.0000000180025095e-35 1.0000000180025095e-35 1.0000000180025095e-35 1.0000000180025095e-35 1.0000000180025095e-35 1.0000000180025095e-35 1.0000000180025095e-35 1.0000000180025095e-35 1.0000000180025095e-35 1.0000000180025095e-35 1.0000000180025095e-35 1.0000000180025095e-35 1.0000000180025095e-35 1.0000000180025095e-35 1.0000000180025095e-35 1.0000000180025095e-35 1.0000000180025095e-35 1.0000000180025095e-35 1.0000000180025095e-35 1.0000000180025095e-35 1.0000000180025095e-35 1.0000000180025095e-35 1.0000000180025095e-35 1.0000000180025095e-35 1.0000000180025095e-35 1.0000000180025095e-35 1.0000000180025095e-35
decision_type=2 2 2 2 2 2 2 2 2 2 2 2 2 2 2 2 2 2 2 2 2 2 2 2 2 2 2 2 2 2
left_child=1 3 28 4 6 11 8 10 13 -4 -5 -6 19 14 17 16 21 18 24 23 27 22 -7 -3 -1 26 -8 -19 -2 -20
right_child=2 12 9 7 5 15 25 -9 -10 -11 -12 -13 -14 -15 -16 -17 -18 20 29 -21 -22 -23 -24 -25 -26 -27 -28 -29 -30 -31
leaf_value=-0.10236593495060153 -0.10343666410081123 -0.078811124509093597 -0.0022955481945097331 -0.057957696927631613 -0.053473021330060135 -0.031526569415214804 -0.024921867182019622 0.082269988517503528 0.049474781544450952 0.14087846324723494 0.10990376688212551 0.10347334500448646 -0.083095058126248247 0.13252838124102673 0.067579260155481297 0.13378432381582955 0.10496215077199461 -0.07297409920471605 -0.064500187966091277 0.13271980917172066 0.16051900611251979 0.08843997571433003 0.14207370820769943 0.076502398061847054 -0.030740199897634247 0.10625822228773008 0.098297297891682844 0.10316981142208957 0.035946509449909667 0.001642138553333375
leaf_weight=1866.0077679008245 110.90532334148884 70.518315732479095 121.45841109752655 357.29920995235443 1085.9105256050825 576.88623575866222 603.88522493839264 568.45046320557594 216.30186407268047 1358.8895366638899 92.910593539476395 88.626541659235954 73.205578118562698 48.79682731628418 101.62340378761292 156.2082242667675 207.14158564805984 151.06651169061661 1549.7675771713257 354.19553218781948 46.916414394974709 146.55240234732628 48.882370308041573 236.43649582564831 283.44541420042515 105.90754972398281 92.15815332531929 51.21735118329525 128.69634909927845 313.15906654298306
leaf_count=8019 464 291 487 1487 4530 2333 2486 2446 891 6453 386 368 306 203 425 729 928 633 6433 1591 191 602 198 1020 1206 449 412 213 523 1297
internal_value=0 -0.0192656 0.107162 -0.0269837 -0.0352205 -0.00196409 -0.0493688 0.035605 -0.05906 0.129131 -0.0233158 -0.0416304 0.0727931 -0.064381 -0.0665832 0.0390597 0.0239527 -0.0697825 -0.0745629 0.0900538 0.00718746 0.00222543 -0.0179657 0.0408214 -0.0929207 0.00656212 -0.00860729 -0.0283753 -0.0285703 -0.0533816
internal_weight=0 9493.48 1719.95 8759.12 7740.46 2310.21 5430.25 1018.66 4628.3 1480.35 450.21 1174.54 734.356 4412 4363.2 1135.67 979.463 4261.58 4012.38 661.15 249.2 772.321 625.769 306.955 2149.45 801.951 696.043 202.284 239.602 1862.93
internal_count=48000 40073 7927 36865 32546 9688 22858 4319 19511 6940 1873 4898 3208 18620 18417 4790 4061 17992 16955 2902 1037 3133 2531 1311 9225 3347 2898 846 987 7730
is_linear=0
shrinkage=0.1


Tree=6
num_leaves=31
num_cat=0
split_feature=647 142 1026 312 755 526 823 653 278 973 1026 562 980 42 698 982 952 882 732 429 215 641 500 842 90 952 1024 191 144 937
split_gain=1980.93 561.953 451.375 392.51 324.516 299.908 232.881 242.874 209.513 193.864 226.355 190.093 174.168 165.599 150.053 138.069 121.603 121.16 120.999 114.27 113.234 111.614 113.845 111.487 110.691 108.911 112.16 212.953 128.283 119.621
threshold=1.0000000180025095e-35 1.0000000180025095e-35 1.0000000180025095e-35 1.0000000180025095e-35 1.0000000180025095e-35 1.0000000180025095e-35 1.0000000180025095e-35 1.0000000180025095e-35 1.0000000180025095e-35 1.0000000180025095e-35 1.0000000180025095e-35 1.0000000180025095e-35 1.0000000180025095e-35 1.0000000180025095e-35 1.0000000180025095e-35 1.0000000180025095e-35 1.0000000180025095e-35 1.0000000180025095e-35 1.0000000180025095e-35 1.0000000180025095e-35 1.0000000180025095e-35 1.0000000180025095e-35 1.0000000180025095e-35 1.0000000180025095e-35 1.0000000180025095e-35 1.0000000180025095e-35 1.0000000180025095e-35 1.0000000180025095e-35 1.0000000180025095e-35 1.0000000180025095e-35
decision_type=2 2 2 2 2 2 2 2 2 2 2 2 2 2 2 2 2 2 2 2 2 2 2 2 2 2 2 2 2 2
left_child=1 3 -2 5 6 9 7 13 -4 10 11 20 -3 17 -11 -15 -12 18 25 -7 -1 23 -23 -13 -6 26 -5 28 -28 -29
right_child=2 12 8 4 24 19 -8 -9 -10 14 16 21 -14 15 -16 -17 -18 -19 -20 -21 -22 22 -24 -25 -26 -27 27 29 -30 -31
leaf_value=-0.074965603668615169 -0.026057496840234364 0.01692468184338981 -0.036555118589212995 -0.06578624487460448 0.016158487814379754 0.033128269445704427 0.081792855041408583 0.097524063347974699 0.13253968794697177 -0.1246526732558345 -0.10332526453401064 -0.053365040605045599 0.11592838149512107 -0.013791942842945602 0.093407190098981019 0.091319671160934923 0.1616287766793631 0.094365422743271241 0.12070180018836166 -0.085116689123839018 0.090437216607023724 -0.070718391190329563 0.12581040825466475 0.0093910126377987069 0.10390890443181158 0.1333821858717974 -0.079214469985449287 -0.048009140655006374 0.12810857248815913 0.068346274101505164
leaf_weight=1368.4906293898821 236.94231075048447 345.76181471347809 77.568405076861382 1391.231462046504 248.75358353555202 589.3221127986908 238.30852913856506 164.61886808276176 1323.6019771099091 40.475315824151039 1046.2618235200644 678.44002455472946 365.5538312792778 367.48481756448746 143.21721205115318 189.36151675879955 17.613887637853622 66.749066561460495 44.70708030462265 94.885856747627258 42.680370569229126 42.028843745589256 98.685192137956619 485.77241238951683 340.55517576634884 33.585278898477554 451.17849034070969 128.03431808948517 31.95915512740612 285.10051167011261
leaf_count=5960 987 1512 312 5842 1041 2518 1012 749 6628 177 4570 2881 1696 1536 640 787 74 277 184 407 183 178 407 2056 1505 140 1892 532 130 1187
internal_value=0 -0.0176278 0.101593 -0.0246698 -0.00162736 -0.0444093 -0.0135264 -0.0207284 0.123179 -0.0549632 -0.0598385 -0.0445233 0.0678039 -0.0272403 0.0453593 0.0219524 -0.0989386 -0.0385013 -0.04225 0.0167301 -0.0699631 -0.0170122 0.0671107 -0.0271798 0.0668685 -0.0453886 -0.0480134 -0.0204256 -0.0655002 0.0322867
internal_weight=0 9340.82 1638.11 8629.5 3981.63 4647.87 3392.32 3154.01 1401.17 3963.67 3779.97 2716.1 711.316 2989.39 183.693 556.846 1063.88 2432.55 2365.8 684.208 1411.17 1304.93 140.714 1164.21 589.309 2321.09 2287.5 896.272 483.138 413.135
internal_count=48000 40073 7927 36865 16814 20051 14268 13256 6940 17126 16309 11665 3208 12507 817 2323 4644 10184 9907 2925 6143 5522 585 4937 2546 9723 9583 3741 2022 1719
is_linear=0
shrinkage=0.1


Tree=7
num_leaves=31
num_cat=0
split_feature=647 142 1026 973 492 578 312 283 653 698 37 235 1025 579 215 673 1024 392 21 935 687 155 695 445 91 42 389 1025 827 391
split_gain=1688.94 465.389 400.996 332.839 349.74 326.588 318.482 234.202 221.462 210.308 206.973 200.282 199.216 198.942 249.103 184.574 162.102 161.125 149.442 133.787 132.463 117.478 113.259 109.347 107.083 106.163 120.527 100.957 100.847 99.9321
threshold=1.0000000180025095e-35 1.0000000180025095e-35 1.0000000180025095e-35 1.0000000180025095e-35 1.0000000180025095e-35 1.0000000180025095e-35 1.0000000180025095e-35 1.0000000180025095e-35 1.0000000180025095e-35 1.0000000180025095e-35 1.0000000180025095e-35 1.0000000180025095e-35 1.0000000180025095e-35 1.0000000180025095e-35 1.0000000180025095e-35 1.0000000180025095e-35 1.0000000180025095e-35 1.0000000180025095e-35 1.0000000180025095e-35 1.0000000180025095e-35 1.0000000180025095e-35 1.0000000180025095e-35 1.0000000180025095e-35 1.0000000180025095e-35 1.0000000180025095e-35 1.0000000180025095e-35 1.0000000180025095e-35 1.0000000180025095e-35 1.0000000180025095e-35 1.0000000180025095e-35
decision_type=2 2 2 2 2 2 2 2 2 2 2 2 2 2 2 2 2 2 2 2 2 2 2 2 2 2 2 2 2 2
left_child=1 3 -2 4 5 6 10 8 25 -5 12 -4 15 14 17 18 21 29 23 24 -6 22 -3 -1 -7 28 -27 -9 -8 -14
right_child=2 16 11 9 20 19 7 27 -10 -11 -12 -13 13 -15 -16 -17 -18 -19 -20 -21 -22 -23 -24 -25 -26 26 -28 -29 -30 -31
leaf_value=-0.10359136154686138 -0.023526389530529435 -0.074116424073469619 -0.0048493875267948891 -0.087631587774093231 -0.02514209835464697 -0.036189403987370659 -0.04825302028703693 0.073375814027822617 0.092925442048643642 0.10456654129637005 0.097190094569140073 0.13026931380348405 -0.016776380099415136 0.045294384124716078 0.13387854391743684 -0.021786459001339898 -0.079087307601230061 -0.085917477398329681 0.050935905123161596 0.07371373435393859 0.12334350011868189 0.12210436857532291 0.068773437315237204 0.021652455240686083 0.10733733368294465 -0.031316628528515605 0.067657755226645563 -0.041270224766686264 0.029390864416906821 0.18590399648483985
leaf_weight=1707.8761946111917 236.22940403223038 72.482363671064377 120.72976373136044 69.802085757255554 84.42593389749527 298.83075702190399 2008.0531135946512 379.13123932480812 149.22820323705673 308.77756915986538 84.813764110207558 1200.9174332618713 256.5007953196764 275.00189098715782 69.310286983847618 455.27691285312176 72.374330922961235 759.23348657786846 69.554529145359993 380.51594117283821 208.33475281298161 313.95834791660309 236.3593375980854 72.676378384232521 62.928714722394943 303.05613729357719 207.13061028718948 96.325184494256973 182.48270839452744 26.875501826405525
leaf_count=7623 987 300 487 310 371 1248 8504 1628 688 1430 390 6453 1114 1129 297 1969 306 3303 324 1603 958 1547 1055 313 258 1263 858 403 768 113
internal_value=0 -0.0161054 0.0964772 -0.0225274 -0.0267915 -0.0307964 -0.0373925 -0.0148244 -0.0256639 0.0691293 -0.0572615 0.117926 -0.0608094 -0.0308619 -0.0496971 -0.0788258 0.0625669 -0.0619007 -0.0928621 0.0323187 0.0805234 0.0790282 0.0352385 -0.0984793 -0.0112227 -0.0322166 0.00886596 0.0501491 -0.0417849 0.00244589
internal_weight=0 9211.32 1557.88 8516.14 8137.56 7844.8 7102.53 3325.41 2849.95 378.58 3777.12 1321.65 3692.31 1386.92 1111.92 2305.38 695.174 1042.61 1850.11 742.275 292.761 622.8 308.842 1780.55 361.759 2700.72 510.187 475.456 2190.54 283.376
internal_count=48000 40073 7927 36865 35125 33796 30687 14112 12081 1740 16575 6940 16185 5956 4827 10229 3208 4530 8260 3109 1329 2902 1355 7936 1506 11393 2121 2031 9272 1227
is_linear=0
shrinkage=0.1


Tree=8
num_leaves=31
num_cat=0
split_feature=647 142 1026 973 1026 562 268 612 823 732 488 451 235 21 698 775 99 215 680 835 347 155 140 578 919 751 215 333 579 138
split_gain=1445.3 388.896 358.828 277.686 319.01 314.72 309.111 308.753 302.309 242.335 222.675 206.621 185.455 183.76 177.665 169.755 154.626 143.836 143.788 157.851 143.381 140.241 125.518 119.915 114.29 113.287 99.9278 98.9646 98.5121 97.3811
threshold=1.0000000180025095e-35 1.0000000180025095e-35 1.0000000180025095e-35 1.0000000180025095e-35 1.0000000180025095e-35 1.0000000180025095e-35 1.0000000180025095e-35 1.0000000180025095e-35 1.0000000180025095e-35 1.0000000180025095e-35 1.0000000180025095e-35 1.0000000180025095e-35 1.0000000180025095e-35 1.0000000180025095e-35 1.0000000180025095e-35 1.0000000180025095e-35 1.0000000180025095e-35 1.0000000180025095e-35 1.0000000180025095e-35 1.0000000180025095e-35 1.0000000180025095e-35 1.0000000180025095e-35 1.0000000180025095e-35 1.0000000180025095e-35 1.0000000180025095e-35 1.0000000180025095e-35 1.0000000180025095e-35 1.0000000180025095e-35 1.0000000180025095e-35 1.0000000180025095e-35
decision_type=2 2 2 2 2 2 2 2 2 2 2 2 2 2 2 2 2 2 2 2 2 2 2 2 2 2 2 2 2 2
left_child=1 3 28 4 5 7 8 16 9 11 20 15 -4 18 -5 -6 17 24 19 22 -8 -3 23 26 29 -10 -7 -13 -2 -1
right_child=2 21 12 14 6 13 10 -9 25 -11 -12 27 -14 -15 -16 -17 -18 -19 -20 -21 -22 -23 -24 -25 -26 -27 -28 -29 -30 -31
leaf_value=-0.045713288805809049 -0.071536408646250757 0.016490532336624297 -0.0043639060369298731 -0.081093321491326711 -0.10047867410074061 -0.035602047448662771 -0.068110527093490802 0.088813854146584215 -0.057685268478080393 0.11653522682218381 0.1534740249357443 -0.091316813750223727 0.12607314115030196 0.099436499229197811 0.098128005843567054 0.079405901459362355 0.068362035025788026 0.085518237913824777 0.075014977124839913 0.07646077559480359 0.17647165428426489 0.10824134828445675 0.054643261927924042 0.050179432714807126 0.12021046372812505 0.15568856716337443 0.11303471542225957 0.14353455679253535 0.061920347789993481 -0.10119532575992335
leaf_weight=2277.5301171094179 146.76287107169628 363.87080049514771 120.74391992390156 67.983617871999741 1642.3516528606415 1501.9933895170689 148.11736844480038 191.99350753426552 36.6524728089571 60.342187985777855 108.48852775990963 26.496343389153481 1120.9190022498369 224.35064786672592 296.76577027142048 54.191820353269577 121.28159974515438 79.544555857777596 261.93649125099182 223.12089078128338 28.595891088247299 307.2732957303524 246.2180360853672 205.4656545072794 38.461545139551163 77.48712058365345 46.635107815265656 55.582902938127518 88.762575760483742 367.38092613220215
leaf_count=9972 626 1618 487 310 7308 6371 667 913 152 256 459 114 6453 1086 1430 234 517 345 1219 933 123 1590 1037 849 167 330 192 242 361 1639
internal_value=0 -0.0147508 0.0919234 -0.0206109 -0.0244899 -0.0120884 -0.0565472 -0.0339777 -0.0707479 -0.0805495 0.0407016 -0.0872358 0.113389 0.0127613 0.0647239 -0.0947327 -0.0421516 -0.0470027 0.00493722 -0.00331845 -0.028532 0.0584973 -0.0122173 -0.0216023 -0.0509311 0.08717 -0.031126 0.0677212 -0.0212405 -0.0534198
internal_weight=0 9060.11 1477.19 8388.97 8024.22 5785.91 2238.31 3076.19 1953.1 1838.96 285.202 1778.62 1241.66 2709.72 364.749 1696.54 2884.2 2762.92 2485.37 2223.43 176.713 671.144 2000.31 1754.09 2683.37 114.14 1548.63 82.0792 235.525 2644.91
internal_count=48000 40073 7927 36865 35125 25240 9885 13553 8636 8154 1249 7898 6940 11687 1740 7542 12640 12123 10601 9382 790 3208 8449 7412 11778 482 6563 356 987 11611
is_linear=0
shrinkage=0.1


Tree=9
num_leaves=31
num_cat=0
split_feature=647 579 1024 1024 973 191 492 1026 913 215 268 823 488 235 732 713 919 272 144 77 511 719 775 272 698 3 400 660 638 37
split_gain=1241 328.144 404.303 348.852 453.744 359.935 349.714 321.191 266.429 265.695 200.947 208.434 204.75 172.844 166.561 163.124 162.785 160.539 156.609 156.597 192.418 155.297 149.844 143.347 143.115 132.601 126.206 122.103 113.312 101.742
threshold=1.0000000180025095e-35 1.0000000180025095e-35 1.0000000180025095e-35 1.0000000180025095e-35 1.0000000180025095e-35 1.0000000180025095e-35 1.0000000180025095e-35 1.0000000180025095e-35 1.0000000180025095e-35 1.0000000180025095e-35 1.0000000180025095e-35 1.0000000180025095e-35 1.0000000180025095e-35 1.0000000180025095e-35 1.0000000180025095e-35 1.0000000180025095e-35 1.0000000180025095e-35 1.0000000180025095e-35 1.0000000180025095e-35 1.0000000180025095e-35 1.0000000180025095e-35 1.0000000180025095e-35 1.0000000180025095e-35 1.0000000180025095e-35 1.0000000180025095e-35 1.0000000180025095e-35 1.0000000180025095e-35 1.0000000180025095e-35 1.0000000180025095e-35 1.0000000180025095e-35
decision_type=2 2 2 2 2 2 2 2 2 2 2 2 2 2 2 2 2 2 2 2 2 2 2 2 2 2 2 2 2 2
left_child=1 3 19 4 8 6 16 -2 9 10 11 14 -12 -9 15 22 18 28 23 20 -3 -13 27 -5 -6 26 -22 -1 29 -7
right_child=7 2 -4 5 24 17 -8 13 -10 -11 12 21 -14 -15 -16 -17 -18 -19 -20 -21 25 -23 -24 -25 -26 -27 -28 -29 -30 -31
leaf_value=-0.088327256616595018 -0.019395392184117163 -0.078056263905846357 -0.081261824819701262 -0.083578683303993137 -0.10589586421255835 -0.0062279472190805638 0.10988041175537691 -0.0039271154294475722 0.066652809007121103 0.091413400170085521 -0.0391375970969077 -0.074209997493736898 0.11283056461323725 0.12245013711297842 0.079249414234279336 0.043055242190124507 0.17557817216017874 0.08224607553038242 0.12801547355231974 0.12265284853737307 0.0094316571505165276 0.13410811182402446 0.047912110677018352 -0.01303838273524976 0.10584387819595886 0.10761563657322047 0.1393066171462933 0.073096907087118398 0.1399785333335736 0.11970010108713586
leaf_weight=2820.1531475633383 232.57109512388706 134.31785579025745 283.5338522195816 828.65927076339722 36.461339339613914 788.79196996986866 158.72892947494984 120.75547830760479 188.40127043426037 119.82680575549603 313.83714300394058 61.092865705490112 123.56504525244236 1042.7015421688557 69.497532188892365 108.60499730706215 32.064795345067978 542.45974309742451 46.385249748826027 243.92673705518246 592.42932635545731 86.387972250580788 86.53973551094532 441.60136145353317 256.36432534456253 280.18711879849434 85.637780129909515 47.650409504771233 66.007942885160446 69.839471578598022
leaf_count=12695 987 584 1241 3834 173 3408 785 487 835 519 1396 252 526 6453 298 476 136 2432 194 1067 2582 376 372 1895 1290 1517 354 211 280 345
internal_value=0 -0.0135117 0.0271991 -0.0225551 -0.0407069 0.0037973 -0.0305199 0.0878879 -0.0494494 -0.0551499 -0.0598743 -0.0683649 0.00379304 0.109333 -0.0738347 -0.0773082 -0.0470435 0.0390581 -0.0524651 0.0502088 0.034035 0.0478138 -0.0817329 -0.0590556 0.079479 0.0497467 0.0258345 -0.0856451 0.013721 0.0040148
internal_weight=0 8912.95 1620.03 7292.92 4318.38 2974.54 1507.44 1396.03 4025.56 3837.16 3717.33 3279.93 437.402 1163.46 3132.45 3062.95 1348.71 1467.1 1316.65 1336.5 1092.57 147.481 2954.34 1270.26 292.826 958.254 678.067 2867.8 924.639 858.631
internal_count=48000 40073 7345 32728 19419 13309 6844 7927 17956 17121 16602 14680 1922 6940 14052 13754 6059 6465 5923 6104 5037 628 13278 5729 1463 4453 2936 12906 4033 3753
is_linear=0
shrinkage=0.1


Tree=10
num_leaves=31
num_cat=0
split_feature=647 1026 142 312 578 1024 79 363 235 673 1025 389 492 37 268 918 65 980 935 496 719 500 913 191 21 90 1025 855 562 842
split_gain=1066.43 289.983 274.736 243.415 215.663 182.187 189.625 181.054 161.956 150.953 149.689 148.275 137.236 122.947 122.182 129.297 121.903 119.533 111.432 111.073 109.016 105.057 104.597 104.457 102.165 102.127 99.8695 91.2752 88.796 82.9729
threshold=1.0000000180025095e-35 1.0000000180025095e-35 1.0000000180025095e-35 1.0000000180025095e-35 1.0000000180025095e-35 1.0000000180025095e-35 1.0000000180025095e-35 1.0000000180025095e-35 1.0000000180025095e-35 1.0000000180025095e-35 1.0000000180025095e-35 1.0000000180025095e-35 1.0000000180025095e-35 1.0000000180025095e-35 1.0000000180025095e-35 1.0000000180025095e-35 1.0000000180025095e-35 1.0000000180025095e-35 1.0000000180025095e-35 1.0000000180025095e-35 1.0000000180025095e-35 1.0000000180025095e-35 1.0000000180025095e-35 1.0000000180025095e-35 1.0000000180025095e-35 1.0000000180025095e-35 1.0000000180025095e-35 1.0000000180025095e-35 1.0000000180025095e-35 1.0000000180025095e-35
decision_type=2 2 2 2 2 2 2 2 2 2 2 2 2 2 2 2 2 2 2 2 2 2 2 2 2 2 2 2 2 2
left_child=2 28 3 4 9 7 -7 14 -3 10 13 12 23 19 15 16 20 29 -6 24 22 -11 -5 -8 27 -12 -16 -1 -2 -4
right_child=1 8 17 5 18 6 11 -9 -10 21 25 -13 -14 -15 26 -17 -18 -19 -20 -21 -22 -23 -24 -25 -26 -27 -28 -29 -30 -31
leaf_value=-0.090352419284171648 -0.086000012277939297 -0.003534115889836808 -0.02550596080462815 -0.058527419758896838 -0.027132660914688307 0.057353809017684325 -0.092264804675256343 0.088975325893768054 0.1192883065865003 -0.019662376918981813 -0.044696874604882468 0.083797000901610338 0.10835383781222033 0.085478311762914483 0.094211025087683573 0.12128447258925419 0.042407337159796249 0.096070770797226521 0.070260274923273122 0.030015851419415592 0.071558384672765235 0.074786751609633537 0.061333604266503174 -0.0022606421174016945 0.041982030243377155 0.017364819676769859 -0.061610479560242792 -0.0074709972842663432 0.038392629476203401 0.081888139471530341
leaf_weight=1553.9379466325045 104.22126115858555 120.76491504907608 222.81327703595161 1451.1452300399542 202.2232707887888 894.43712982535362 276.72469420731068 148.19871927797794 967.18930843472481 614.50665178894997 761.92995429039001 132.03766582906246 60.911252528429031 50.486797332763672 141.20438323915005 52.315249547362328 169.53533513844013 304.98354786634445 280.32798136770725 99.711549714207649 74.259895533323288 145.68943648040295 76.650680780410767 241.46451930701733 67.723406136035919 406.67260664701462 58.03787524998188 145.29753068089485 127.69841602444649 106.2445327937603
leaf_count=7507 464 487 1011 6413 870 4005 1211 750 6453 2804 3477 574 321 260 606 217 727 1696 1205 480 343 624 338 1060 330 1835 249 659 523 501
internal_value=0 0.0840135 -0.0124234 -0.0173823 -0.03357 0.00116951 0.0267106 -0.0177165 0.105655 -0.0414766 -0.0513099 -0.011831 -0.0336347 -0.0685056 -0.0255319 -0.0336542 -0.0382295 0.05097 0.0294457 -0.0726703 -0.0467628 -0.00156147 -0.0525139 -0.0503249 -0.078465 -0.0230995 0.0488213 -0.0832654 -0.0175076 0.00916891
internal_weight=0 1319.87 8739.47 8105.43 4328.51 3776.92 1605.58 2171.35 1087.95 3845.96 3085.76 711.138 579.1 1917.16 2023.15 1823.91 1771.59 634.041 482.551 1866.67 1602.06 760.196 1527.8 518.189 1766.96 1168.6 199.242 1699.24 231.92 329.058
internal_count=48000 7927 40073 36865 20051 16814 7171 9643 6940 17976 14548 3166 2592 9236 8893 8038 7821 3208 2075 8976 7094 3428 6751 2271 8496 5312 855 8166 987 1512
is_linear=0
shrinkage=0.1


Tree=11
num_leaves=31
num_cat=0
split_feature=647 1026 579 1024 1024 973 191 492 215 913 999 488 268 660 1002 235 732 713 283 144 77 511 698 272 855 720 332 638 632 37
split_gain=918.073 261.443 250.158 325.512 265.912 362.631 278.181 269.096 208.264 208.789 157.56 165.871 167.16 174.618 152.952 152.422 138.179 139.309 135.403 128.569 126.918 148.862 117.44 113.466 109.615 105.369 98.9358 92.7403 92.4437 95.8675
threshold=1.0000000180025095e-35 1.0000000180025095e-35 1.0000000180025095e-35 1.0000000180025095e-35 1.0000000180025095e-35 1.0000000180025095e-35 1.0000000180025095e-35 1.0000000180025095e-35 1.0000000180025095e-35 1.0000000180025095e-35 1.0000000180025095e-35 1.0000000180025095e-35 1.0000000180025095e-35 1.0000000180025095e-35 1.0000000180025095e-35 1.0000000180025095e-35 1.0000000180025095e-35 1.0000000180025095e-35 1.0000000180025095e-35 1.0000000180025095e-35 1.0000000180025095e-35 1.0000000180025095e-35 1.0000000180025095e-35 1.0000000180025095e-35 1.0000000180025095e-35 1.0000000180025095e-35 1.0000000180025095e-35 1.0000000180025095e-35 1.0000000180025095e-35 1.0000000180025095e-35
decision_type=2 2 2 2 2 2 2 2 2 2 2 2 2 2 2 2 2 2 2 2 2 2 2 2 2 2 2 2 2 2
left_child=2 -2 4 20 5 8 7 18 9 10 11 16 13 -13 -12 -3 17 24 19 -6 21 -4 -7 27 -1 26 -23 28 29 -8
right_child=1 15 3 -5 6 22 23 -9 -10 -11 14 12 -14 -15 -16 -17 -18 -19 -20 -21 -22 25 -24 -25 -26 -27 -28 -29 -30 -31
leaf_value=-0.08025764025249181 -0.016013810779254203 -0.0031804882239144048 -0.068893914623056635 -0.073669872718322219 -0.061324941193509577 -0.097769692918312945 -0.015979963208153068 0.10127800818087809 0.08645652963300382 0.056059853768606782 -0.038364390702541579 -0.064519141917996778 0.10021029969274474 0.17281633697117493 0.13012362066392238 0.11650072656057012 0.076476522207291273 0.042594714757548308 0.037475994952241902 0.11672197346743006 0.11223896119182507 0.013271396799541806 0.099689526864539066 0.071970377237239383 -0.0037584575364553842 0.10831744920822924 0.12661156326089709 0.12859530841518133 0.11188393340775737 0.11164527252697445
leaf_weight=2543.0728906840086 228.9841795116663 120.77263122797012 130.54329040646553 276.52196109294891 1075.257580190897 34.403380781412125 708.04829816520214 146.9890988022089 119.61135031282902 184.85036660730839 136.91582258045673 284.77654787898064 118.88573321700096 34.786959275603294 88.837733864784241 895.00915187597275 65.621742531657219 105.27700911462307 186.30154460668564 42.146757230162621 235.65409292280674 630.38429863750935 241.94355496764183 527.65164037048817 202.2018359452486 205.55985587835312 87.735915243625641 65.220730468630791 73.650690019130707 64.193155020475388
leaf_count=11922 987 487 584 1241 5060 173 3022 785 525 829 628 1342 515 151 404 6453 285 458 820 179 1067 2821 1290 2432 897 1258 374 280 388 343
internal_value=0 0.0805117 -0.0113626 0.024786 -0.0193935 -0.0355763 0.00391178 -0.0269885 -0.0434498 -0.0475766 -0.0529272 -0.0583691 -0.00102226 -0.0386833 0.0279384 0.102271 -0.0669913 -0.070294 -0.0414502 -0.0546093 0.0458928 0.0310622 0.0751071 0.0350683 -0.0746231 0.045189 0.0271187 0.0136972 0.00483821 -0.00537102
internal_weight=0 1244.77 8617.04 1566.4 7050.64 4161.18 2889.46 1450.69 3884.84 3765.23 3580.38 3354.62 438.449 319.564 225.754 1015.78 2916.17 2850.55 1303.71 1117.4 1289.88 1054.22 276.347 1438.76 2745.27 923.68 718.12 911.113 845.892 772.241
internal_count=48000 7927 40073 7345 32728 19419 13309 6844 17956 17431 16602 15570 2008 1493 1032 6940 13562 13277 6059 5239 6104 5037 1463 6465 12819 4453 3195 4033 3753 3365
is_linear=0
shrinkage=0.1


Tree=12
num_leaves=31
num_cat=0
split_feature=647 1026 138 429 579 1024 1024 973 191 716 700 19 598 278 952 999 413 1025 937 606 61 489 90 638 919 937 733 468 272 2
split_gain=790.27 237.365 234.313 186.336 172.473 231.678 197.345 234.114 179.619 190.989 171.909 172.523 158.466 145.836 141.379 130.527 130.755 140.444 129.376 118.036 103.341 94.3368 94.3024 93.1525 92.3451 86.4929 82.3931 79.1058 85.6004 79.742
threshold=1.0000000180025095e-35 1.0000000180025095e-35 1.0000000180025095e-35 1.0000000180025095e-35 1.0000000180025095e-35 1.0000000180025095e-35 1.0000000180025095e-35 1.0000000180025095e-35 1.0000000180025095e-35 1.0000000180025095e-35 1.0000000180025095e-35 1.0000000180025095e-35 1.0000000180025095e-35 1.0000000180025095e-35 1.0000000180025095e-35 1.0000000180025095e-35 1.0000000180025095e-35 1.0000000180025095e-35 1.0000000180025095e-35 1.0000000180025095e-35 1.0000000180025095e-35 1.0000000180025095e-35 1.0000000180025095e-35 1.0000000180025095e-35 1.0000000180025095e-35 1.0000000180025095e-35 1.0000000180025095e-35 1.0000000180025095e-35 1.0000000180025095e-35 1.0000000180025095e-35
decision_type=2 2 2 2 2 2 2 2 2 2 2 2 2 2 2 2 2 2 2 2 2 2 2 2 2 2 2 2 2 2
left_child=2 -2 3 4 6 20 7 10 9 23 12 -12 14 26 15 16 17 19 22 -1 21 -6 -19 24 27 -10 -3 28 29 -8
right_child=1 13 -4 -5 5 -7 8 -9 25 -11 11 -13 -14 -15 -16 -17 -18 18 -20 -21 -22 -23 -24 -25 -26 -27 -28 -29 -30 -31
leaf_value=-0.097224885008415862 -0.014450682298493452 -0.098071193427010719 -0.058655268757424377 -0.053251862676807551 0.077944871182959841 -0.059247323815018009 -0.089120493262750081 0.074129197796734825 0.0050864945686159785 0.07225538931725628 -0.039115650416867563 0.12463414485221312 0.051091181921292431 0.11077272645761692 0.12725298217010214 0.041117948442236693 0.11223462928400439 -0.030895421479514996 -0.058951810077388755 0.012936037687895328 -0.016027794956013218 -0.016046120778383518 0.061796390261601858 0.10722074865520981 0.14922439770256785 0.062583530165619364 0.13175949605041062 0.091102407267230179 -0.011533801709138343 0.07153665514730867
leaf_weight=898.98419798910618 228.4096777588129 55.058103442192078 900.87380866706371 715.29320056736469 795.99731080234051 227.64291690289974 464.40515294671059 228.24317029118538 399.9489027261734 211.73697012662888 122.30062834918499 135.764250472188 184.51257368922234 870.51716664433479 46.820591673254967 153.67441786825657 46.356461867690086 264.05518707633018 823.73655754327774 109.06636476516724 188.03072902560234 123.32949477434158 187.83636543154716 44.991696298122406 24.966254860162735 756.51389227807522 21.764069199562073 40.146734043955803 310.72580394148827 33.096702575683594
leaf_count=4427 987 224 4367 3366 3909 1033 2299 1272 1857 1116 561 628 844 6628 213 711 208 1210 3816 523 882 561 830 207 105 3433 88 179 1357 159
internal_value=0 0.0770546 -0.0104546 -0.00469424 0.000396417 0.0326322 -0.00744536 -0.0234716 0.0149928 -0.0133603 -0.0309644 0.0470308 -0.0383778 0.0991171 -0.0449014 -0.0481467 -0.054034 -0.0574091 -0.0353639 -0.085306 0.0515202 0.0653358 0.0076335 -0.0331004 -0.0403293 0.0426989 -0.0329591 -0.0459075 -0.0527132 -0.0784326
internal_weight=0 1175.75 8439.05 7538.18 6822.88 1335 5487.88 3201.35 2286.53 1130.07 2973.11 258.065 2715.04 947.339 2530.53 2483.71 2330.04 2283.68 1275.63 1008.05 1107.36 919.327 451.892 918.332 873.341 1156.46 76.8222 848.374 808.228 497.502
internal_count=48000 7927 40073 35706 32340 6385 25955 15243 10712 5422 13971 1189 12782 6940 11938 11725 11014 10806 5856 4950 5352 4470 2040 4306 4099 5290 312 3994 3815 2458
is_linear=0
shrinkage=0.1


Tree=13
num_leaves=31
num_cat=0
split_feature=647 1026 138 579 1024 1024 973 913 191 492 215 235 959 391 413 999 713 488 253 915 61 632 937 698 283 1025 347 37 145 1002
split_gain=679.558 215.492 192.915 153.153 204.888 177.937 231.65 155.74 154.893 194.073 154.04 141.464 136.844 142.957 135.08 138.607 123.532 97.7442 96.558 104.138 93.668 90.2675 104.537 89.3073 87.2366 86.9545 110.12 94.639 91.2602 86.6671
threshold=1.0000000180025095e-35 1.0000000180025095e-35 1.0000000180025095e-35 1.0000000180025095e-35 1.0000000180025095e-35 1.0000000180025095e-35 1.0000000180025095e-35 1.0000000180025095e-35 1.0000000180025095e-35 1.0000000180025095e-35 1.0000000180025095e-35 1.0000000180025095e-35 1.0000000180025095e-35 1.0000000180025095e-35 1.0000000180025095e-35 1.0000000180025095e-35 1.0000000180025095e-35 1.0000000180025095e-35 1.0000000180025095e-35 1.0000000180025095e-35 1.0000000180025095e-35 1.0000000180025095e-35 1.0000000180025095e-35 1.0000000180025095e-35 1.0000000180025095e-35 1.0000000180025095e-35 1.0000000180025095e-35 1.0000000180025095e-35 1.0000000180025095e-35 1.0000000180025095e-35
decision_type=2 2 2 2 2 2 2 2 2 2 2 2 2 2 2 2 2 2 2 2 2 2 2 2 2 2 2 2 2 2
left_child=2 -2 3 5 20 6 7 10 9 24 12 -3 13 14 15 16 18 -14 25 -20 -5 22 -10 -8 -7 26 27 -1 -27 -17
right_child=1 11 -4 4 -6 8 23 -9 21 -11 -12 -13 17 -15 -16 29 -18 -19 19 -21 -22 -23 -24 -25 -26 28 -28 -29 -30 -31
leaf_value=-0.099725844806603875 -0.013038031142415328 -0.0050769379093283861 -0.053663127277123079 0.055810768423039198 -0.057832455499887907 -0.041692696363558268 -0.091155559688252272 0.063163063738206293 -0.017054897909210328 0.10303459098624808 0.078435257584907672 0.11186080534180004 -0.065239587233357418 0.051866219370932401 0.10486343198779663 -0.030332960881825716 0.046309217013289078 0.11322577584408498 -0.096467276831054896 0.19680557186274872 -0.019177251775062722 0.11646531453318838 0.045906225442690587 0.092156237706593092 0.03729999887908432 -0.062635688387767549 0.10316077089821643 0.12041827028954724 0.01085488606642639 0.11511708337043305
leaf_weight=1000.0640339106321 227.87144550681114 119.65209022164345 886.96498736739159 962.87770450115204 244.6485091894865 934.36615321040154 30.435262307524681 160.54661381244659 397.64949788153172 122.07177011668682 109.8671903014183 764.04352982342243 45.674563020467758 139.45158216357231 53.832234889268875 93.825138077139854 102.72300677001476 93.537305146455765 21.026058986783028 28.545930206775665 201.41869527101517 117.89712174236774 782.90452179312706 209.6484088152647 164.40500657260418 1083.9016027152538 28.708735972642899 19.916835442185402 200.18007771670818 72.71566241979599
leaf_count=5150 987 487 4367 4750 1126 4509 155 744 1780 715 495 6453 219 622 244 425 447 420 103 127 941 708 3462 1218 726 5131 127 88 927 347
internal_value=0 0.073669 -0.00958536 -0.00431844 0.0253577 -0.011271 -0.0258758 -0.0328687 0.0089878 -0.0165839 -0.0378518 0.0960275 -0.0421332 -0.0468703 -0.0519597 -0.0551434 -0.0610622 0.0546724 -0.0656919 0.0724133 0.0428381 0.0330311 0.0246988 0.0689179 -0.0298733 -0.0686266 -0.0899907 -0.0954272 -0.051179 0.033174
internal_weight=0 1111.57 8309.8 7422.84 1408.94 6013.89 3494.6 3254.52 2519.29 1220.84 3093.97 883.696 2984.1 2844.89 2705.44 2651.61 2485.07 139.212 2382.34 49.572 1164.3 1298.45 1180.55 240.084 1098.77 2332.77 1048.69 1019.98 1284.08 166.541
internal_count=48000 7927 40073 35706 6817 28889 16989 15616 11900 5950 14872 6940 14377 13738 13116 12872 12100 639 11653 230 5691 5950 5242 1373 5235 11423 5365 5238 6058 772
is_linear=0
shrinkage=0.1


Tree=14
num_leaves=31
num_cat=0
split_feature=647 1026 312 526 235 283 122 492 1025 719 956 843 21 363 609 882 42 982 579 419 621 733 392 142 29 500 107 813 413 775
split_gain=585.12 196.264 184.857 193.186 133.835 124.076 118.923 104.043 102.336 125.768 100.398 96.7549 92.0948 90.4059 89.2805 83.0694 82.5684 93.7027 81.7746 81.3744 79.4273 77.3625 76.1195 75.4818 76.3384 74.9877 64.2146 62.9061 63.7623 64.3192
threshold=1.0000000180025095e-35 1.0000000180025095e-35 1.0000000180025095e-35 1.0000000180025095e-35 1.0000000180025095e-35 1.0000000180025095e-35 1.0000000180025095e-35 1.0000000180025095e-35 1.0000000180025095e-35 1.0000000180025095e-35 1.0000000180025095e-35 1.0000000180025095e-35 1.0000000180025095e-35 1.0000000180025095e-35 1.0000000180025095e-35 1.0000000180025095e-35 1.0000000180025095e-35 1.0000000180025095e-35 1.0000000180025095e-35 1.0000000180025095e-35 1.0000000180025095e-35 1.0000000180025095e-35 1.0000000180025095e-35 1.0000000180025095e-35 1.0000000180025095e-35 1.0000000180025095e-35 1.0000000180025095e-35 1.0000000180025095e-35 1.0000000180025095e-35 1.0000000180025095e-35
decision_type=2 2 2 2 2 2 2 2 2 2 2 2 2 2 2 2 2 2 2 2 2 2 2 2 2 2 2 2 2 2
left_child=2 21 3 6 -3 7 8 12 9 11 -11 -1 13 15 18 16 23 -18 22 -5 26 -2 -10 24 27 -22 -13 28 29 -4
right_child=1 4 5 19 -6 -7 -8 -9 14 10 -12 20 -14 -15 -16 -17 17 -19 -20 -21 25 -23 -24 -25 -26 -27 -28 -29 -30 -31
leaf_value=-0.073251310690513202 -0.044300332030786142 -0.0045686494085593271 -0.043592321318528457 0.035892747733174149 0.10982728242506863 0.052266290773448146 0.035310214022602301 0.086757646697630489 0.0078184668689483278 -0.030013144784808127 0.13176138789065148 -0.051630163321600836 0.069374969017814161 0.068281067715803237 0.065527766862547798 0.095559169281673753 -0.012397131372338667 0.075571590013435441 0.021539402963967808 -0.09865894292520351 -0.05918847672470097 0.092805862039527121 -0.057058589083223948 0.044222417707718682 0.021022973743305185 0.10180207556606591 0.084880363096718495 0.13886383669653418 0.075090151792090484 0.084106126933601866
leaf_weight=1281.9378523677588 173.40921281278133 119.66691239178181 1681.9855966717005 629.5396953523159 703.48020397126675 529.80657158792019 246.63007202744484 132.81790478527546 253.41108293831348 94.820661991834641 64.429077327251434 535.42175315320492 163.78247205913067 148.85260671377182 125.70533560216427 70.402752935886383 310.82544285058975 198.36050029098988 305.30415263772011 48.403843075037003 44.821337535977364 53.960650414228439 631.5722262263298 156.38326078653336 277.02952325344086 81.618434518575668 36.829197451472282 20.481877669692039 48.997039929032326 40.390081331133842
leaf_count=7029 766 487 7842 3013 6453 2484 1171 770 1200 479 286 2524 883 820 580 316 1432 877 1492 236 213 221 3179 869 1315 359 209 87 230 178
internal_value=0 0.0704799 -0.00880966 -0.0227911 0.0931967 0.00739219 -0.0317773 7.7625e-05 -0.0365651 -0.0500599 0.0354374 -0.0569342 -0.0036153 -0.00766259 -0.0146217 -0.0116929 -0.0144543 0.0218723 -0.0230862 0.026286 -0.0269959 -0.0117615 -0.0384813 -0.0227665 -0.0278301 0.0447329 -0.0428446 -0.035383 -0.0373978 -0.0405978
internal_weight=0 1050.52 8160.56 4380.44 823.147 3780.12 3702.5 3250.31 3455.87 2139.88 159.25 1980.63 3117.49 2953.71 1315.99 2804.86 2734.45 509.186 1190.29 677.944 698.691 227.37 884.983 2225.27 2068.88 126.44 572.251 1791.85 1771.37 1722.38
internal_count=48000 7927 40073 21970 6940 18103 18721 15619 17550 11099 765 10334 14849 13966 6451 13146 12830 2309 5871 3249 3305 987 4379 10521 9652 572 2733 8337 8250 8020
is_linear=0
shrinkage=0.1


Tree=15
num_leaves=31
num_cat=0
split_feature=647 1026 312 526 235 755 579 730 680 578 660 956 21 429 1026 973 952 882 42 982 562 122 1012 215 484 1025 243 823 641 500
split_gain=504.352 177.757 152.204 158.941 126.856 103.804 102.363 110.072 93.7569 84.786 86.7946 83.2312 83.1416 70.9871 69.3289 101.762 72.6313 68.8617 69.3358 81.3065 68.7199 68.4895 68.9426 70.6309 64.4679 62.1837 61.6983 64.0408 61.095 100.177
threshold=1.0000000180025095e-35 1.0000000180025095e-35 1.0000000180025095e-35 1.0000000180025095e-35 1.0000000180025095e-35 1.0000000180025095e-35 1.0000000180025095e-35 1.0000000180025095e-35 1.0000000180025095e-35 1.0000000180025095e-35 1.0000000180025095e-35 1.0000000180025095e-35 1.0000000180025095e-35 1.0000000180025095e-35 1.0000000180025095e-35 1.0000000180025095e-35 1.0000000180025095e-35 1.0000000180025095e-35 1.0000000180025095e-35 1.0000000180025095e-35 1.0000000180025095e-35 1.0000000180025095e-35 1.0000000180025095e-35 1.0000000180025095e-35 1.0000000180025095e-35 1.0000000180025095e-35 1.0000000180025095e-35 1.0000000180025095e-35 1.0000000180025095e-35 1.0000000180025095e-35
decision_type=2 2 2 2 2 2 2 2 2 2 2 2 2 2 2 2 2 2 2 2 2 2 2 2 2 2 2 2 2 2
left_child=2 20 3 6 -3 8 9 25 12 10 14 -11 17 -5 21 16 26 18 24 -20 -2 22 23 28 -4 -8 27 -16 -1 -30
right_child=1 4 5 13 -6 -7 7 -9 -10 11 -12 -13 -14 -15 15 -17 -18 -19 19 -21 -22 -23 -24 -25 -26 -27 -28 -29 29 -31
leaf_value=-0.051856830800289189 -0.073562910594148836 -0.004111345729336688 -0.024391508984249695 0.036073745649548183 0.10796223526413139 0.049028091951492117 -0.060505441442011171 0.058241363188041621 0.060801138761580491 -0.018059617047239546 0.10488355644470487 0.10463288802848775 0.066516546149920808 -0.060900626780762059 -0.10000650429385492 0.05851886412514079 0.11637570388723328 0.088247885357168765 -0.0086242654666527797 0.073007339044413089 0.038014080252789836 0.037875925450933781 0.11079403383313079 0.071758396885626782 0.03050362981679592 0.012200819722365367 0.15124412789219713 0.058460207055537616 -0.072644447039793794 0.099552187232086919
leaf_weight=1569.4531869590282 98.022666871547699 119.67899715900421 2018.6507550179958 590.48420335352421 646.96957457065582 502.13937638700008 233.2053210735321 250.35151939094067 236.4343745559454 207.46932552754879 39.117141008377075 75.378915011882782 155.87025168538094 86.550124511122704 587.24486376345158 54.882816091179848 17.705902457237244 71.735912263393402 326.42579810321331 194.84382602572441 126.35078167915344 119.79360592365265 29.724162817001343 52.233631387352943 239.2915777862072 237.36773058772087 10.50878946483135 26.660132229328156 64.09488433599472 71.4420395642519
leaf_count=8045 464 487 9617 2823 6453 2662 1142 1381 1178 951 183 330 862 426 3482 308 73 320 1497 856 523 558 155 255 1111 1060 45 114 324 315
internal_value=0 0.067555 -0.00803766 -0.0208204 0.0904668 0.00671868 -0.0290817 0.00466998 0.000168085 -0.0373985 -0.0429676 0.0146379 -0.00459966 0.0236768 -0.0451888 -0.0721778 -0.0833487 -0.0084878 -0.0109847 0.0218886 -0.0107309 -0.0353231 -0.0402302 -0.0427849 -0.0185738 -0.0238308 -0.0890121 -0.0931247 -0.046294 0.0181211
internal_weight=0 991.022 8069.06 4323.67 766.649 3745.39 3646.63 720.925 3243.25 2925.71 2642.86 282.848 3006.82 677.034 2603.74 697.003 642.12 2850.95 2779.21 521.27 224.373 1906.74 1786.95 1757.22 2257.94 470.573 624.414 613.905 1704.99 135.537
internal_count=48000 7927 40073 21970 6940 18103 18721 3583 15441 15138 13857 1281 14263 3249 13674 4022 3714 13401 13081 2353 987 9652 9094 8939 10728 2202 3641 3596 8684 639
is_linear=0
shrinkage=0.1


Tree=16
num_leaves=31
num_cat=0
split_feature=647 1026 138 429 578 235 645 37 492 775 638 925 413 973 1025 312 392 579 472 937 77 90 698 1024 195 90 155 579 1024 730
split_gain=434.564 161.174 143.618 134.041 122.661 120.406 114.257 105.841 107.23 86.8584 91.5499 93.1881 94.1845 96.944 84.6277 135.555 146.413 119.507 118.879 92.1933 71.2334 67.8453 63.7541 66.0087 63.1182 62.63 59.8859 58.4753 69.8656 56.9877
threshold=1.0000000180025095e-35 1.0000000180025095e-35 1.0000000180025095e-35 1.0000000180025095e-35 1.0000000180025095e-35 1.0000000180025095e-35 1.0000000180025095e-35 1.0000000180025095e-35 1.0000000180025095e-35 1.0000000180025095e-35 1.0000000180025095e-35 1.0000000180025095e-35 1.0000000180025095e-35 1.0000000180025095e-35 1.0000000180025095e-35 1.0000000180025095e-35 1.0000000180025095e-35 1.0000000180025095e-35 1.0000000180025095e-35 1.0000000180025095e-35 1.0000000180025095e-35 1.0000000180025095e-35 1.0000000180025095e-35 1.0000000180025095e-35 1.0000000180025095e-35 1.0000000180025095e-35 1.0000000180025095e-35 1.0000000180025095e-35 1.0000000180025095e-35 1.0000000180025095e-35
decision_type=2 2 2 2 2 2 2 2 2 2 2 2 2 2 2 2 2 2 2 2 2 2 2 2 2 2 2 2 2 2
left_child=2 27 3 4 6 29 7 8 9 10 11 12 13 14 15 -1 -17 18 19 21 24 -16 -15 -24 -19 -18 -8 -2 -29 -3
right_child=1 5 -4 -5 -6 -7 26 -9 -10 -11 -12 -13 -14 22 17 16 25 20 -20 -21 -22 -23 23 -25 -26 -27 -28 28 -30 -31
leaf_value=-0.058389437046934202 -0.051076008015641862 -0.051818646248286838 -0.046243562222487856 -0.045026278738601717 0.044366865579915579 0.1062338986190655 0.019703587712841211 0.090891658979557269 0.068641171870686093 0.065981179984005267 0.044754802952191253 0.069437935323219083 0.1044212801815208 -0.067374896300402221 -0.026081161378178921 -0.077605937434151034 0.016101302002573654 -0.0026420506465758727 0.10292165279778859 -0.051458138889125399 0.11163451885731096 0.060116477858966656 0.08430541604157045 -0.18648437067243676 0.12480350272884284 -0.040258608992428946 0.094509775956142489 0.098864162021777571 -0.12595234059244273 0.0952494504051275
leaf_weight=1298.3868905007839 134.69904927909374 80.528228476643562 848.1657630354166 677.59100475907326 610.80075685679913 594.44075408577919 342.62080377340317 108.20962189137936 171.93176898360252 140.09491513669491 252.69378446042538 121.36261789500713 60.66081964969635 41.816294327378273 220.53106281161308 283.07778342068195 848.13951477408409 264.44452139735222 71.10788856446743 720.4244799464941 104.26986530423164 155.83772937953472 168.50337165594101 9.5100041627883893 45.554430305957794 256.89084757864475 155.6251527145505 69.543462887406349 17.252415582537651 39.160629168152809
leaf_count=6918 626 327 4367 3366 2834 6453 1654 583 997 652 1205 757 283 217 1053 1328 3966 1183 350 3544 495 695 1054 42 209 1196 1125 290 71 160
internal_value=0 0.0646941 -0.00734288 -0.00271541 0.00172775 0.0878089 -0.00273055 -0.00700109 -0.00902448 -0.0116617 -0.0138711 -0.017043 -0.0193502 -0.0210229 -0.024358 -0.0351635 -0.0134387 -0.00601052 -0.022379 -0.0305026 0.0401353 0.00960948 0.043738 0.069839 0.0160861 0.00299909 0.043069 -0.009831 0.0541774 -0.00369989
internal_weight=0 935.625 7978.25 7130.09 6452.49 714.13 5841.69 5343.45 5235.24 5063.31 4923.21 4670.52 4549.16 4488.49 4268.67 2686.5 1388.11 1582.17 1167.9 1096.79 414.269 376.369 219.83 178.013 309.999 1105.03 498.246 221.495 86.7959 119.689
internal_count=48000 7927 40073 35706 32340 6940 29506 26727 26144 25147 24495 23290 22533 22250 20937 13408 6490 7529 5642 5292 1887 1748 1313 1096 1392 5162 2779 987 361 487
is_linear=0
shrinkage=0.1


Tree=17
num_leaves=31
num_cat=0
split_feature=647 1026 416 823 235 429 578 232 925 579 1024 492 37 363 94 445 813 124 77 511 660 758 587 13 3 490 215 1025 690 389
split_gain=374.537 145.917 130.863 124.494 114.052 112.804 109.69 102.963 87.9669 90.8966 142.777 101.62 103.83 94.9977 88.0868 79.7949 76.8557 66.5146 65.8018 87.311 63.874 62.4797 59.7827 58.5985 58.5564 57.5566 57.4571 64.8979 61.5333 67.7296
threshold=1.0000000180025095e-35 1.0000000180025095e-35 1.0000000180025095e-35 1.0000000180025095e-35 1.0000000180025095e-35 1.0000000180025095e-35 1.0000000180025095e-35 1.0000000180025095e-35 1.0000000180025095e-35 1.0000000180025095e-35 1.0000000180025095e-35 1.0000000180025095e-35 1.0000000180025095e-35 1.0000000180025095e-35 1.0000000180025095e-35 1.0000000180025095e-35 1.0000000180025095e-35 1.0000000180025095e-35 1.0000000180025095e-35 1.0000000180025095e-35 1.0000000180025095e-35 1.0000000180025095e-35 1.0000000180025095e-35 1.0000000180025095e-35 1.0000000180025095e-35 1.0000000180025095e-35 1.0000000180025095e-35 1.0000000180025095e-35 1.0000000180025095e-35 1.0000000180025095e-35
decision_type=2 2 2 2 2 2 2 2 2 2 2 2 2 2 2 2 2 2 2 2 2 2 2 2 2 2 2 2 2 2
left_child=2 -2 3 5 -3 6 7 8 9 11 18 12 13 14 15 16 17 20 19 -11 26 25 -7 -5 -21 -16 28 -28 -1 -30
right_child=1 4 -4 23 -6 22 -8 -9 -10 10 -12 -13 -14 -15 21 -17 -18 -19 -20 24 -22 -23 -24 -25 -26 -27 27 -29 29 -31
leaf_value=-0.052612768062554452 -0.008994148136270615 -0.0033302314736461261 -0.076225233336836146 0.078381689497166215 0.10461520938216043 -0.053614078900308906 0.036806805211468056 -0.046275001479209092 0.084746450556773212 -0.068239988467016774 -0.060846533974759524 0.064596702228377517 0.087662807847177948 0.050730437737445691 -0.015432101288455966 0.063132992006314545 0.11871569533787035 0.11223912783670852 0.09394616506576009 0.019706061001962153 0.07717841302864259 0.097667160450418747 0.055313493334897483 -0.046675583054414965 0.088443219139178408 0.069040913242446281 -0.10401715837968264 0.10428865447366686 -0.032924822883636205 0.023536396519775928
leaf_weight=1367.2182850837708 218.14447200298309 119.27008748054504 261.72380346804857 249.17731482535601 545.7712583988905 643.83522439002991 631.39522108435631 600.99364960938692 112.79063842445612 89.340737625956535 177.33946125209332 169.73411358892918 97.269622653722763 197.09488256275654 383.48637375235558 95.224573418498039 34.443523049354553 31.85115285217762 167.03459287434816 488.37675951421261 51.676519155502319 80.086026012897491 54.662631407380104 44.100004032254219 166.0798724591732 102.14473167061806 20.234561413526535 57.33790697157383 1244.3897147625685 256.20300617814064
leaf_count=7371 987 487 1362 1234 6453 3280 2925 3248 727 411 857 1005 544 1138 1923 433 149 137 834 2206 233 377 250 201 1184 576 86 282 5968 1132
internal_value=0 0.0619765 -0.00669908 -0.00430904 0.085256 -0.00686856 -0.00283678 -0.0070153 -0.00263726 -0.00450515 0.0212446 -0.0111951 -0.0143963 -0.0169278 -0.0205084 -0.027017 -0.0298193 -0.0315084 0.0372278 0.0244906 -0.0330361 0.0158311 -0.0450897 0.0595769 0.0371493 0.00233545 -0.0349698 0.0499527 -0.0372669 -0.0232849
internal_weight=0 883.186 7875.24 7613.52 665.041 7320.24 6621.75 5990.35 5389.36 5276.57 1088.17 4188.39 4018.66 3921.39 3724.3 3158.58 3063.35 3028.91 910.832 743.797 2997.06 565.717 698.498 293.277 654.457 485.631 2945.38 77.5725 2867.81 1500.59
internal_count=48000 7927 40073 38711 6940 37276 33746 30821 27573 26846 5492 21354 20349 19805 18667 15791 15358 15209 4635 3801 15072 2876 3530 1435 3390 2499 14839 368 14471 7100
is_linear=0
shrinkage=0.1


Tree=18
num_leaves=31
num_cat=0
split_feature=647 1026 138 235 934 142 904 442 813 1026 959 19 1019 2 823 413 309 90 413 235 775 407 671 1026 635 79 1020 700 1024 959
split_gain=321.468 132.846 112.553 108.403 106.946 96.3216 131.958 76.9653 73.5403 72.3512 80.4069 90.7286 73.4814 78.0724 59.4341 57.962 60.6798 56.6367 55.7801 55.2989 55.0039 51.6152 51.4497 58.8673 56.9449 47.9022 56.6154 47.1678 45.281 45.1243
threshold=1.0000000180025095e-35 1.0000000180025095e-35 1.0000000180025095e-35 1.0000000180025095e-35 1.0000000180025095e-35 1.0000000180025095e-35 1.0000000180025095e-35 1.0000000180025095e-35 1.0000000180025095e-35 1.0000000180025095e-35 1.0000000180025095e-35 1.0000000180025095e-35 1.0000000180025095e-35 1.0000000180025095e-35 1.0000000180025095e-35 1.0000000180025095e-35 1.0000000180025095e-35 1.0000000180025095e-35 1.0000000180025095e-35 1.0000000180025095e-35 1.0000000180025095e-35 1.0000000180025095e-35 1.0000000180025095e-35 1.0000000180025095e-35 1.0000000180025095e-35 1.0000000180025095e-35 1.0000000180025095e-35 1.0000000180025095e-35 1.0000000180025095e-35 1.0000000180025095e-35
decision_type=2 2 2 2 2 2 2 2 2 2 2 2 2 2 2 2 2 2 2 2 2 2 2 2 2 2 2 2 2 2
left_child=2 19 4 25 5 6 7 9 18 12 11 14 -1 -14 15 16 20 29 -8 -2 21 -11 24 -24 -4 26 -3 -13 -10 -6
right_child=1 3 22 -5 17 -7 8 -9 28 10 -12 27 13 -15 -16 -17 -18 -19 -20 -21 -22 -23 23 -25 -26 -27 -28 -29 -30 -31
leaf_value=0.034219409813481511 0.014235163473357347 -0.079691596955059327 -0.054582105275308282 0.10308277188555655 -0.055800562442157878 0.052334474391640046 -0.025626583372133867 -0.094904149161892479 -0.097778595192596338 -0.073891505798391974 0.093462666417854279 0.011920904151925975 -0.016189875496914873 0.054262955437333275 0.062537925156343377 0.1036573854589079 0.081492627377663857 0.0017264330965591009 0.12202636926196027 -0.12174634171077772 0.075462330767109564 0.040791265897838914 -0.037822291360874311 0.2055291059269474 0.046356518642702932 0.10008169042967818 0.13138015930612343 0.13025614711897668 0.12860400050981333 0.10685749319980496
leaf_weight=1680.2291753292084 182.00328584015369 71.085020914673805 721.91111563146114 500.80298040062189 598.3493731841445 369.53826973587275 1984.570149526 67.021110564470291 10.749601572751997 500.37065793573856 68.205029562115669 105.47564183175564 723.79187547415495 200.96160050481558 57.294586166739464 25.564976900815964 33.142624899744987 301.60405702888966 25.919705763459206 35.786106750369072 29.433312445878983 42.58471392095089 22.643175661563873 17.719313159584999 60.580943182110786 32.717207059264183 15.474248915910719 49.487137824296951 49.619279712438583 17.555721327662468
leaf_count=8313 818 290 3850 6453 3096 2312 10177 340 56 2732 327 556 3616 974 286 124 232 1547 122 169 130 210 118 94 305 135 62 252 223 81
internal_value=0 0.0590793 -0.00611861 0.0826776 -0.00197323 0.00287094 -0.000361693 0.0112512 -0.0204576 0.0132744 -0.0109735 -0.0194196 0.0217595 -0.00087951 -0.0349816 -0.0438349 -0.0500619 -0.0337779 -0.023723 -0.00810866 -0.0576793 -0.0648968 -0.0410883 0.0690101 -0.0467674 -0.00299704 -0.0419582 0.0497111 0.0882931 -0.0511642
internal_weight=0 837.869 7764.32 620.079 6941.47 6023.96 5654.42 3583.56 2070.86 3516.54 911.559 843.354 2604.98 924.753 688.391 631.096 605.531 917.509 2010.49 217.789 572.389 542.955 822.855 40.3625 782.492 119.276 86.5593 154.963 60.3689 615.905
internal_count=48000 7927 40073 6940 35706 30982 28670 18092 10578 17752 4849 4522 12903 4590 3714 3428 3304 4724 10299 987 3072 2942 4367 212 4155 487 352 808 279 3177
is_linear=0
shrinkage=0.1


Tree=19
num_leaves=31
num_cat=0
split_feature=647 1026 37 416 235 823 429 19 1026 730 268 612 255 21 90 664 191 894 703 905 315 1024 937 214 492 142 1009 77 79 575
split_gain=275.979 120.933 109.172 106.339 102.486 93.5435 91.1037 92.1575 90.3607 158.318 122.735 84.9454 91.9985 107.01 93.7299 94.1712 74.5065 68.4604 66.5262 63.465 71.8478 62.6529 67.016 62.5681 61.1426 61.0716 57.525 69.3954 65.8779 56.8605
threshold=1.0000000180025095e-35 1.0000000180025095e-35 1.0000000180025095e-35 1.0000000180025095e-35 1.0000000180025095e-35 1.0000000180025095e-35 1.0000000180025095e-35 1.0000000180025095e-35 1.0000000180025095e-35 1.0000000180025095e-35 1.0000000180025095e-35 1.0000000180025095e-35 1.0000000180025095e-35 1.0000000180025095e-35 1.0000000180025095e-35 1.0000000180025095e-35 1.0000000180025095e-35 1.0000000180025095e-35 1.0000000180025095e-35 1.0000000180025095e-35 1.0000000180025095e-35 1.0000000180025095e-35 1.0000000180025095e-35 1.0000000180025095e-35 1.0000000180025095e-35 1.0000000180025095e-35 1.0000000180025095e-35 1.0000000180025095e-35 1.0000000180025095e-35 1.0000000180025095e-35
decision_type=2 2 2 2 2 2 2 2 2 2 2 2 2 2 2 2 2 2 2 2 2 2 2 2 2 2 2 2 2 2
left_child=2 -2 3 5 -3 6 7 8 11 10 -10 12 13 14 15 17 19 23 -12 20 29 22 -16 -1 -13 26 27 28 -11 -14
right_child=1 4 -4 -5 -6 -7 -8 -9 9 25 18 24 16 -15 21 -17 -18 -19 -20 -21 -22 -23 -24 -25 -26 -27 -28 -29 -30 -31
leaf_value=-0.056531724226946967 -0.0073814873891285592 -0.0027031665954983185 0.083147996478558861 -0.071014771550524936 0.10161613042252665 0.051815815057653453 -0.042311401578789161 0.027818371998101023 -0.071555842745774784 -0.093229312038149756 -0.032011582648358038 -0.027181935225002864 -0.024593889286652116 0.074959878487463022 0.069782149770563837 0.039769862029244665 0.040990090557895958 0.097749214609380478 0.10785436968010714 0.09192511447503604 0.067350793906500048 -0.026731986650233481 -0.019034183478035399 0.008512802240219771 0.10499560512716677 0.080565312139781478 0.10195490890641717 0.066799201000981689 -0.0031081844279556045 0.099995506541160517
leaf_weight=1120.5528507828712 216.62136869132519 118.46122258901596 136.26541844010353 252.12895892560482 459.35422466695309 279.10381077975035 669.22953768074512 817.62375985831022 757.38502436131239 123.76145670562983 75.238572470843792 48.594774849712849 806.18525738269091 120.26726635545492 230.836938790977 148.12079982459545 642.55506959557533 33.077183112502098 62.055396161973476 66.559287652373314 108.95670122653246 265.63683047890663 134.43097300827503 170.37277272343636 125.06786952167749 103.65318594872952 46.441788695752621 83.999373696744442 235.375602401793 38.374613717198372
leaf_count=5571 987 487 760 1352 6453 1399 3464 4078 4383 682 423 241 4234 724 1046 711 3153 148 296 359 622 1281 663 812 820 738 236 508 1179 190
internal_value=0 0.05634 -0.00556494 -0.00716276 0.080229 -0.00496149 -0.00721425 -0.00352414 -0.00814358 -0.0292247 -0.0557864 -0.000416981 -0.00347496 -0.0167808 -0.0220272 -0.0358478 0.0143178 -0.0443074 0.0312063 -0.0024833 -0.00907338 0.0102211 0.0370947 -0.0479473 0.0680093 0.0108341 -0.00392936 -0.0150263 -0.0341646 -0.0189329
internal_weight=0 794.437 7701.85 7565.59 577.815 7313.46 7034.35 6365.12 5547.5 1487.91 894.679 4059.59 3885.93 2223.3 2103.03 1472.12 1662.63 1324 137.294 1020.08 953.517 630.905 365.268 1290.93 173.663 593.231 489.578 443.136 359.137 844.56
internal_count=48000 7927 40073 39313 6940 37961 36562 33098 29020 8445 5102 20575 19514 10956 10232 7242 8558 6531 719 5405 5046 2990 1709 6383 1061 3343 2605 2369 1861 4424
is_linear=0
shrinkage=0.1


Tree=20
num_leaves=31
num_cat=0
split_feature=647 1026 235 881 58 312 526 122 283 196 717 191 1025 641 500 87 391 986 882 492 937 90 562 419 719 496 842 191 1024 363
split_gain=236.344 109.801 97.3891 97.0425 87.338 86.6505 113.046 75.7842 72.7678 67.6368 70.7789 67.1945 69.6519 57.8355 63.8873 56.5346 53.0997 52.3404 52.4092 52.7287 56.8814 69.637 50.1875 49.217 48.9732 52.1453 47.4718 44.5459 47.4731 46.211
threshold=1.0000000180025095e-35 1.0000000180025095e-35 1.0000000180025095e-35 1.0000000180025095e-35 1.0000000180025095e-35 1.0000000180025095e-35 1.0000000180025095e-35 1.0000000180025095e-35 1.0000000180025095e-35 1.0000000180025095e-35 1.0000000180025095e-35 1.0000000180025095e-35 1.0000000180025095e-35 1.0000000180025095e-35 1.0000000180025095e-35 1.0000000180025095e-35 1.0000000180025095e-35 1.0000000180025095e-35 1.0000000180025095e-35 1.0000000180025095e-35 1.0000000180025095e-35 1.0000000180025095e-35 1.0000000180025095e-35 1.0000000180025095e-35 1.0000000180025095e-35 1.0000000180025095e-35 1.0000000180025095e-35 1.0000000180025095e-35 1.0000000180025095e-35 1.0000000180025095e-35
decision_type=2 2 2 2 2 2 2 2 2 2 2 2 2 2 2 2 2 2 2 2 2 2 2 2 2 2 2 2 2 2
left_child=3 22 -3 4 5 6 7 9 17 10 11 12 24 16 -15 -5 26 18 19 20 21 -7 -2 -8 25 -1 -13 29 -29 -22
right_child=1 2 -4 15 -6 8 23 -9 -10 -11 -12 13 -14 14 -16 -17 -18 -19 -20 -21 27 -23 -24 -25 -26 -27 -28 28 -30 -31
leaf_value=-0.078644818784467746 -0.062792160757730572 -0.0024327554327948494 0.10019722014175228 -0.064164858442371811 -0.056824012511198577 -0.053026611041493393 0.036554320416822869 0.038919915664452409 0.048096743983803883 0.059563434360279249 0.054724062108789787 -0.039953572336896892 -0.017729011935549401 -0.048369161491045615 0.091837338627734244 0.052297511622749752 0.077349743775033411 0.067237751535297444 0.086767519902034726 0.070204125583636715 -0.0089168065141005046 0.016538328566007888 0.034673152947016443 -0.078486663345307531 0.016345843673786359 0.023505522211035031 0.0060827852686829486 -0.0012952524487530089 0.055562117861287133 0.074655682933083986
leaf_weight=676.44493385404348 91.723292171955109 118.46543270349503 421.22919291257858 380.20374962687492 282.51646787673235 409.84339501708746 559.29215778410435 212.54641906172037 469.9268606454134 95.801095560193062 104.59370205551386 701.64441922307014 571.54817990958691 48.105949014425278 100.17906224727631 46.813592985272408 53.031063094735146 131.25843092799187 71.929262846708298 103.44179426133633 1212.4149557575583 221.76185038685799 124.60086578130722 39.837475329637527 70.202469795942307 53.959304131567478 329.03262405842543 276.9347800463438 312.62558772414923 69.982589803636074
leaf_count=4373 464 487 6453 2073 1514 2046 2798 1054 2328 504 533 3697 3073 240 468 252 247 657 352 691 6094 1059 523 217 365 315 1735 1446 1486 456
internal_value=0 0.0535418 0.0776695 -0.00508328 -0.00232841 -9.5932e-05 -0.0107716 -0.0186505 0.0116736 -0.0230135 -0.0259341 -0.0291737 -0.0443944 -0.0122212 0.0463522 -0.0513972 -0.0202359 0.00558283 0.00256195 0.000238654 -0.00265217 -0.0286018 -0.00665297 0.028905 -0.0634307 -0.0710984 -0.025257 0.00610333 0.0288544 -0.00435612
internal_weight=0 756.019 539.695 7605.87 7178.85 6896.34 3616.22 3017.09 3280.12 2804.54 2708.74 2604.15 1372.15 1231.99 148.285 427.017 1083.71 2810.19 2678.93 2607 2503.56 631.605 216.324 599.13 800.607 730.404 1030.68 1871.96 589.56 1282.4
internal_count=48000 7927 6940 40073 37748 36234 19619 16604 16615 15550 15046 14513 8126 6387 708 2325 5679 14287 13630 13278 12587 3105 987 3015 5053 4688 5432 9482 2932 6550
is_linear=0
shrinkage=0.1


Tree=21
num_leaves=31
num_cat=0
split_feature=647 1026 235 142 37 578 312 660 855 439 673 196 1025 980 283 472 925 492 496 653 363 468 842 775 587 813 97 882 1025 235
split_gain=202.638 98.9726 92.4812 90.8812 89.8821 90.2504 96.0668 84.5923 75.2664 93.9459 73.6204 72.0926 70.0252 65.9797 59.8858 58.5715 58.0007 56.6606 55.155 54.683 55.3143 55.4271 52.3394 51.0746 51.2953 47.582 47.5098 46.735 46.3967 45.85
threshold=1.0000000180025095e-35 1.0000000180025095e-35 1.0000000180025095e-35 1.0000000180025095e-35 1.0000000180025095e-35 1.0000000180025095e-35 1.0000000180025095e-35 1.0000000180025095e-35 1.0000000180025095e-35 1.0000000180025095e-35 1.0000000180025095e-35 1.0000000180025095e-35 1.0000000180025095e-35 1.0000000180025095e-35 1.0000000180025095e-35 1.0000000180025095e-35 1.0000000180025095e-35 1.0000000180025095e-35 1.0000000180025095e-35 1.0000000180025095e-35 1.0000000180025095e-35 1.0000000180025095e-35 1.0000000180025095e-35 1.0000000180025095e-35 1.0000000180025095e-35 1.0000000180025095e-35 1.0000000180025095e-35 1.0000000180025095e-35 1.0000000180025095e-35 1.0000000180025095e-35
decision_type=2 2 2 2 2 2 2 2 2 2 2 2 2 2 2 2 2 2 2 2 2 2 2 2 2 2 2 2 2 2
left_child=3 29 -3 4 5 6 7 8 9 10 11 12 16 22 17 26 18 19 -1 20 21 23 -5 24 25 27 -14 -8 -16 -2
right_child=1 2 -4 13 -6 -7 14 -9 -10 -11 -12 -13 15 -15 28 -17 -18 -19 -20 -21 -22 -23 -24 -25 -26 -27 -28 -29 -30 -31
leaf_value=-0.070963763120665047 0.013876894081464154 -0.0021894120262313955 0.098809889702050693 -0.023542467755400216 0.075047738332058245 0.025355696320120816 -0.029441302451758869 0.10210664802755767 0.0224480378036261 0.097812438716892394 -0.0034758997398199008 0.049581440545876009 -0.036273092252444954 0.075727065469984256 0.050893910779921628 0.094052483452096269 0.052820082418212469 0.06581767782864846 0.019029012876969606 0.059242617409886546 0.051945401589184884 0.074528711341167217 0.066931924987525898 0.068740939958222877 0.043588080009696939 0.096359341053883732 0.068903094641612428 0.067677318183220828 -0.028002851774119531 -0.11353057101961693
leaf_weight=1150.3401634544134 180.13059712946415 118.46887993812561 386.22523521631956 206.7764109224081 129.01230148971081 681.02601238340139 1931.6830008774996 51.330409377813339 276.74223720282316 54.511445686221123 592.02620194852352 80.587318427860737 750.01382024586201 229.21959160268307 344.45556657016277 39.804037645459175 42.781353481113911 105.17631085962057 72.389127261936665 111.8102195635438 126.85421043634415 65.78503791987896 92.563808098435402 64.93118155002594 115.26551748812199 31.795053392648697 45.557356223464012 50.853678420186043 95.119252450764179 33.498237058520317
leaf_count=7167 818 487 6453 1011 750 3207 9478 239 1359 277 3023 426 3976 1696 1692 227 260 736 406 688 786 293 501 279 559 147 222 223 445 169
internal_value=0 0.0509521 0.0751019 -0.0046338 -0.00764882 -0.00919934 -0.0129951 -0.0252194 -0.0273245 -0.0321951 -0.0347503 -0.0432379 -0.0467983 0.0353519 -0.000319477 -0.0243275 -0.0616315 -0.00608239 -0.0656359 -0.0091085 -0.0123099 -0.0159161 0.00443458 -0.0186273 -0.0212912 -0.0250038 -0.0302503 -0.0269501 0.0338215 -0.00610133
internal_weight=0 718.323 504.694 7538.41 7009.85 6880.84 6199.81 3156.08 3104.75 2828.01 2773.5 2181.47 2100.89 528.56 3043.73 835.375 1265.51 2604.15 1222.73 2498.98 2387.17 2260.31 299.34 2194.53 2129.6 2014.33 795.571 1982.54 439.575 213.629
internal_count=48000 7927 6940 40073 36865 36115 32908 17582 17343 15984 15707 12684 12258 3208 15326 4425 7833 13189 7573 12453 11765 10979 1512 10686 10407 9848 4198 9701 2137 987
is_linear=0
shrinkage=0.1


Tree=22
num_leaves=31
num_cat=0
split_feature=647 235 1026 416 442 934 315 77 444 754 138 578 232 733 477 896 638 475 431 675 855 589 407 312 759 579 1024 215 413 671
split_gain=173.16 91.635 122.975 84.2177 83.4529 80.5215 80.633 92.0112 80.8445 79.6956 77.1623 75.3675 65.1317 59.9274 58.2129 56.7747 62.3539 66.2963 61.4542 61.5462 58.931 55.3325 48.0676 47.2484 45.7088 53.3317 78.7116 73.5921 70.3109 44.8823
threshold=1.0000000180025095e-35 1.0000000180025095e-35 1.0000000180025095e-35 1.0000000180025095e-35 1.0000000180025095e-35 1.0000000180025095e-35 1.0000000180025095e-35 1.0000000180025095e-35 1.0000000180025095e-35 1.0000000180025095e-35 1.0000000180025095e-35 1.0000000180025095e-35 1.0000000180025095e-35 1.0000000180025095e-35 1.0000000180025095e-35 1.0000000180025095e-35 1.0000000180025095e-35 1.0000000180025095e-35 1.0000000180025095e-35 1.0000000180025095e-35 1.0000000180025095e-35 1.0000000180025095e-35 1.0000000180025095e-35 1.0000000180025095e-35 1.0000000180025095e-35 1.0000000180025095e-35 1.0000000180025095e-35 1.0000000180025095e-35 1.0000000180025095e-35 1.0000000180025095e-35
decision_type=2 2 2 2 2 2 2 2 2 2 2 2 2 2 2 2 2 2 2 2 2 2 2 2 2 2 2 2 2 2
left_child=3 13 -3 4 5 6 8 -8 9 10 11 12 14 23 15 16 17 18 19 20 22 -7 24 -2 25 26 27 28 -1 -12
right_child=1 2 -4 -5 -6 21 7 -9 -10 -11 29 -13 -14 -15 -16 -17 -18 -19 -20 -21 -22 -23 -24 -25 -26 -27 -28 -29 -30 -31
leaf_value=-0.055914894450388747 -0.060259395960164025 -0.10743506428198635 0.097439552473572277 -0.062384657729048665 -0.089997698966205575 -0.036046028806886198 -0.045681686808998617 0.099940808455920432 -0.095477188695674189 -0.069069160524072734 -0.035060654221424944 0.044310266396329498 -0.032596371694052349 0.086514759441855202 -0.066578705205639688 -0.046395387955007347 0.068340052548292202 0.11496956933886593 -0.071902367758302568 0.03028261970272373 0.055787552375648003 0.050815248697812877 0.039662412334522223 0.031245762911673892 0.036862345746330287 0.020013440318386741 0.0039316445257628159 0.093796674293931709 0.10150090332946898 0.082236315439813829
leaf_weight=726.47147460281849 123.308478936553 31.940551459789276 354.13815201818943 240.98269476741552 106.86893034726381 843.79945600777864 58.717414207756519 166.21276743710041 85.725823767483234 152.22415260970592 598.74459870904684 522.81764989346266 434.61091896891594 71.614956915378571 101.78574261814356 170.92832995951176 190.11766289919615 58.753555245697498 94.022504612803459 1049.998899705708 183.97228947281837 80.318570628762245 235.99718534201384 104.03786085546017 204.18317122757435 385.70239792019129 650.89550752192736 37.476309902966022 29.527643248438835 34.501057922840118
leaf_count=4008 547 169 6453 1362 585 4557 310 1069 477 850 3339 2512 2459 303 554 888 962 305 500 5575 908 414 1330 455 1106 2109 3365 199 150 180
